{"config":{"head":null,"layers":[{"gated":false,"channels":16,"dilations":[1,2,4,8,16,32,64,128,256,512],"head_bias":false,"head_size":8,"activation":"Tanh","input_size":1,"kernel_size":3,"condition_size":1},{"gated":false,"channels":8,"dilations":[1,2,4,8,16,32,64,128,256,512],"head_bias":true,"head_size":1,"activation":"Tanh","input_size":16,"kernel_size":3,"condition_size":1}],"head_scale":0.02},"version":"0.5.4","weights":[0.06179221346974373,0.572839617729187,-0.8958638310432434,-0.7921620011329651,-0.5521246194839478,0.20066435635089874,-0.04328842833638191,0.8603478670120239,-0.12391286343336105,0.27176859974861145,-0.4056251645088196,-0.09758668392896652,-0.9668728709220886,-0.7603505253791809,-0.45537444949150085,0.015041977167129517,0.024731483310461044,0.1533423662185669,-0.18904347717761993,-0.041799817234277725,0.17007331550121307,0.11796591430902481,-0.056269578635692596,-0.014555945061147213,-0.025663336738944054,-0.010760465636849403,0.0071060871705412865,-0.1353801041841507,-0.1124362051486969,-0.1555064469575882,-0.05149128660559654,0.13426490128040314,0.012113956734538078,-0.07696178555488586,-0.07498984038829803,-0.21042633056640625,-0.02690516784787178,0.14969830214977264,0.18529240787029266,0.07075832784175873,0.0099884532392025,-0.1719038188457489,0.0600614920258522,-0.12205743044614792,0.005826110951602459,-0.08828353136777878,0.07182078063488007,-0.030493931844830513,-0.055522434413433075,0.0015301414532586932,0.005675064399838448,0.16478398442268372,0.030415279790759087,-0.1033196672797203,0.09430117905139923,-0.11055485904216766,-0.09561567008495331,-0.11226561665534973,-0.12034381181001663,-0.19116133451461792,0.06975807249546051,0.036712970584630966,-0.009873440489172935,-0.007784541696310043,0.2811257839202881,-0.2140314280986786,0.23126615583896637,0.20163622498512268,-0.1596727967262268,0.2789999842643738,-0.275912880897522,0.19847989082336426,-0.07928059995174408,-0.04469602555036545,0.37838754057884216,-0.01143576204776764,-0.13931573927402496,0.12538808584213257,-0.13219448924064636,0.07524176687002182,-0.3732997179031372,0.2618219554424286,-0.05120881274342537,0.07344324141740799,-0.143985316157341,0.14179164171218872,-0.2747659981250763,0.07232856750488281,-0.11704526096582413,0.14612120389938354,-0.1146298199892044,0.24150124192237854,-0.13899563252925873,0.20005068182945251,-0.3129352033138275,0.1526743620634079,-0.07473929971456528,-0.13549423217773438,0.11327368766069412,-0.21901948750019073,-0.028808312490582466,0.34908029437065125,-0.1997438222169876,-0.2012670338153839,0.11468736082315445,-0.1425125002861023,-0.27534082531929016,0.13597223162651062,-0.14704571664333344,0.17259158194065094,-0.26575830578804016,0.24859410524368286,-0.09933388233184814,0.2017335593700409,-0.020993277430534363,-0.0887884795665741,0.05199625715613365,-0.041149768978357315,-0.017439886927604675,-0.0605415441095829,0.10031009465456009,-0.028626561164855957,-0.16539590060710907,0.11418567597866058,-0.17194651067256927,-0.1769029051065445,0.016985148191452026,-0.048907987773418427,0.030111679807305336,-0.1730179786682129,-0.01783318817615509,-0.026842964813113213,0.015699565410614014,0.03051118738949299,0.19623325765132904,-0.06007494777441025,-0.004013748839497566,-0.08616337925195694,0.11852562427520752,0.11542888730764389,0.21902033686637878,0.029447592794895172,0.10640470683574677,-0.09827739745378494,-0.07221172004938126,-0.07345808297395706,0.04067497327923775,0.06299100071191788,-0.11056835949420929,-0.20508506894111633,-0.09160500764846802,-0.15884418785572052,-0.1234268993139267,0.126333087682724,0.045399267226457596,-0.2291993647813797,0.1404658704996109,-0.11764638125896454,0.0288996659219265,-0.15515603125095367,0.03132402151823044,-0.1481797844171524,0.00895040761679411,-0.1423255354166031,-0.20204555988311768,0.03752800449728966,-0.043245378881692886,0.23970159888267517,-0.16264694929122925,0.012255977839231491,0.3128993511199951,-0.09249316900968552,0.14780211448669434,0.23489968478679657,-0.17118600010871887,0.0848560631275177,-0.184926375746727,-0.02062504179775715,0.08384158462285995,0.020645970478653908,-0.08305495977401733,-0.05216531082987785,-0.08059846609830856,0.07411793619394302,0.06343123316764832,0.21324840188026428,-0.10761655867099762,-0.039417244493961334,-0.2911103665828705,0.12719842791557312,0.12917058169841766,0.2770999073982239,-0.14740964770317078,-0.0024323968682438135,0.042793117463588715,-0.13248780369758606,-0.060988426208496094,0.23437753319740295,-0.11798600852489471,0.018352100625634193,0.1913086324930191,0.057836055755615234,-0.09226339310407639,0.08088554441928864,-0.12277039885520935,0.12326419353485107,-0.19346292316913605,0.20662103593349457,0.22554269433021545,0.03681480139493942,-0.3049599528312683,0.20068955421447754,0.07159477472305298,-0.11262356489896774,-0.23888568580150604,-0.04568615183234215,-0.034720003604888916,-0.3122871220111847,0.052374035120010376,-0.03405528515577316,-0.24712036550045013,0.0802229717373848,0.14654308557510376,0.21917574107646942,-0.07392972707748413,-0.01864103227853775,-0.30466189980506897,-0.0900665670633316,0.1455388069152832,0.21543486416339874,0.06383739411830902,0.0420694425702095,-0.20434477925300598,0.06847195327281952,0.23970246315002441,0.13332825899124146,0.11972816288471222,-0.2040322870016098,-0.2959939241409302,-0.018834181129932404,0.14543215930461884,-0.0800950676202774,-0.06709972769021988,0.09380195289850235,-0.162437304854393,-0.20258423686027527,0.18021897971630096,-0.3569667935371399,-0.06245579570531845,0.06010752171278,-0.3095739781856537,-0.04323433339595795,0.20509688556194305,0.15715040266513824,-0.04208655282855034,-0.20723669230937958,-0.20271146297454834,0.21352054178714752,-0.21802082657814026,-0.10955652594566345,0.08551167696714401,0.024197803810238838,0.08331497013568878,-0.06298550218343735,0.10807057470083237,-0.04015609249472618,-0.2152135670185089,0.10033527761697769,0.13110172748565674,-0.13331595063209534,-0.0027398436795920134,-0.08990903943777084,0.020029686391353607,-0.03580417111515999,-0.024115167558193207,-0.26439473032951355,0.25419896841049194,-0.10167807340621948,0.1563585102558136,-0.015564192086458206,0.04066610708832741,-0.2506110668182373,-0.01310054026544094,0.09442560374736786,0.18508242070674896,0.0461212620139122,-0.03343970701098442,-0.1254093497991562,0.03702584654092789,0.03338132053613663,-0.22266025841236115,0.12377621978521347,0.05248112604022026,-0.17681050300598145,0.022767208516597748,-0.08048071712255478,-0.07446950674057007,-0.04826937988400459,0.07136077433824539,-0.21728691458702087,-0.007145295850932598,-0.021977579221129417,0.06126231700181961,-0.07850535213947296,0.11793097853660583,0.14865392446517944,-0.1781998872756958,0.07199926674365997,0.2301168441772461,-0.2283276915550232,-0.13256284594535828,-0.19929681718349457,0.2613773047924042,-0.06799665838479996,-0.12469915300607681,0.30837321281433105,-0.09143868833780289,-0.17905358970165253,0.27827057242393494,0.015575953759253025,0.17782926559448242,-0.1944991797208786,-0.1380423754453659,-0.16414466500282288,0.33804479241371155,0.14374074339866638,0.2609848380088806,-0.19105462729930878,0.05246162787079811,-0.2482156604528427,0.11920882761478424,-0.11570309102535248,0.315134733915329,-0.1289970725774765,-0.11499673873186111,-0.12305868417024612,0.3270248472690582,0.1347687542438507,-0.031612083315849304,0.3056601881980896,-0.047316841781139374,-0.22754599153995514,0.32771679759025574,0.06498151272535324,-0.26630663871765137,0.34333983063697815,0.05618610605597496,-0.09835975617170334,0.12238725274801254,0.04317009076476097,0.10009243339300156,-0.12485376000404358,0.023167164996266365,0.18182773888111115,-0.045505836606025696,0.18216268718242645,0.09555229544639587,0.09440164268016815,-0.22501394152641296,-0.1193355843424797,-0.12392053008079529,-0.26622292399406433,-0.2690639793872833,0.08820322155952454,-0.04235532134771347,-0.0158770140260458,0.09597332775592804,-0.025739606469869614,0.03735676780343056,-0.012510852888226509,-0.16057445108890533,-0.025623705238103867,-0.06725157052278519,0.05413014069199562,0.011191748082637787,-0.05568882077932358,0.024537257850170135,-0.023649638518691063,0.11608168482780457,0.22134782373905182,0.2703244090080261,-0.0261909868568182,-0.05371154844760895,-0.02040611021220684,0.03177235275506973,0.054668985307216644,-0.036948312073946,0.0877440869808197,-0.17580203711986542,-0.08251066505908966,-0.011185428127646446,-0.15809498727321625,-0.23430554568767548,-0.10559746623039246,-0.22911936044692993,-0.051462020725011826,0.08226913213729858,0.05482237786054611,0.03376416116952896,0.07717322558164597,0.029762811958789825,0.1540021002292633,-0.17491959035396576,0.09252198785543442,0.22548818588256836,-0.1500445306301117,0.17538659274578094,-0.06028240919113159,-0.01451690774410963,0.1183810755610466,-0.25224384665489197,0.016916703432798386,0.16385261714458466,-0.16142810881137848,-0.055853471159935,-0.09952652454376221,0.11407265067100525,-0.07535474747419357,0.08952982723712921,0.007974780164659023,0.10189700871706009,-0.12729273736476898,0.17584261298179626,0.028846245259046555,0.13489887118339539,-0.2742328345775604,0.05200902372598648,-0.15568193793296814,0.0951881930232048,-0.00017919014499057084,-0.05787386745214462,-0.10930882394313812,0.17244850099086761,0.07147779315710068,-0.23082634806632996,0.0037385562900453806,0.06784795224666595,-0.28009581565856934,0.10953627526760101,-0.09290624409914017,-0.3079764246940613,-0.09900838881731033,0.01334488857537508,-0.06681786477565765,-0.09227003902196884,0.05746203288435936,0.07724995166063309,-0.03358179330825806,0.22050869464874268,-0.020476479083299637,-0.07254522293806076,0.27626481652259827,0.21795251965522766,-0.08594579249620438,-0.2976752817630768,0.03963686153292656,0.15876230597496033,-0.13620084524154663,-0.19898656010627747,0.11307434737682343,-0.3463292121887207,-0.13846395909786224,0.19311584532260895,0.06699250638484955,0.11289292573928833,-0.0800907090306282,-0.15328368544578552,-0.1609753966331482,0.09824652224779129,0.15749649703502655,0.14257079362869263,-0.010649810545146465,-0.10674254596233368,-0.09036020934581757,0.24653391540050507,0.05036525800824165,-0.05118171125650406,-0.1031351163983345,-0.2808059751987457,-0.008414841257035732,0.06295445561408997,-0.23493073880672455,-0.16359767317771912,0.24429669976234436,-0.21741674840450287,0.030681902542710304,0.24104444682598114,-0.12466513365507126,-0.07806148380041122,0.11135181039571762,-0.2299133688211441,-0.05961167439818382,0.2272072434425354,0.07309932261705399,0.18569958209991455,-0.2013188898563385,-0.44511842727661133,0.1568823605775833,0.5408890843391418,-0.21639318764209747,0.10662321746349335,0.390471488237381,0.41589319705963135,-0.15384970605373383,-0.1613612025976181,0.2673158347606659,-0.19201123714447021,-0.23232609033584595,0.3076683282852173,-0.1908034235239029,-0.33756449818611145,-0.24136649072170258,0.1846913844347,0.2216975837945938,0.3852105736732483,-0.14242924749851227,-0.3843373954296112,-0.3344440758228302,0.32254040241241455,0.269280344247818,0.39004531502723694,-0.24692101776599884,-0.26561984419822693,-0.445345938205719,0.14301073551177979,0.22179697453975677,0.4808430075645447,-0.27295351028442383,-0.29074716567993164,0.26828673481941223,-0.07358835637569427,-0.12737062573432922,0.23632481694221497,-0.3550131618976593,-0.3943827152252197,0.3458777070045471,-0.2747128903865814,-0.38485413789749146,0.2909640669822693,-0.20595914125442505,-0.35965847969055176,-0.3066001534461975,0.1772993803024292,0.22757300734519958,0.05454113706946373,0.016970816999673843,-0.07904615998268127,-0.002690250752493739,-0.1668800264596939,0.08771219104528427,-0.11950398981571198,-0.016670776531100273,0.19822411239147186,-0.07571141421794891,0.1499517560005188,0.04297127202153206,-0.018777217715978622,0.08650999516248703,0.14053475856781006,0.004570262040942907,-0.24805228412151337,-0.12565825879573822,-0.08001924306154251,0.16350118815898895,-0.10131385177373886,0.12018362432718277,-0.1513669490814209,-0.08081114292144775,0.1029975414276123,0.1800081431865692,0.14026881754398346,0.08011602610349655,-0.15525074303150177,-0.1365889459848404,-0.00031431246316060424,0.2358897179365158,-0.0037431910168379545,-0.15056253969669342,0.14357075095176697,0.17512023448944092,-0.024196090176701546,0.0014489517780020833,-0.07415876537561417,0.051578421145677567,0.11044234037399292,-0.018970753997564316,0.0411619208753109,0.17222268879413605,0.1640520542860031,0.1367318332195282,-0.10764264315366745,-0.12425696849822998,0.06946621090173721,-0.17565757036209106,0.2606607973575592,0.24829275906085968,-0.4828498065471649,0.2619367241859436,-0.049029555171728134,0.4897409975528717,-0.2501641511917114,-0.2381020188331604,0.2607180178165436,0.0073341797105968,-0.24914151430130005,0.2937065362930298,-0.0602378323674202,0.11228085309267044,-0.421332448720932,0.10813788324594498,-0.185800239443779,0.21149852871894836,-0.029991187155246735,0.1226930320262909,-0.30723851919174194,0.2558056116104126,-0.11178391426801682,0.36077603697776794,-0.026861844584345818,0.202199324965477,-0.418552041053772,0.2679114043712616,-0.15385086834430695,0.2155059278011322,-0.1776702105998993,-0.2694259583950043,0.46414002776145935,-0.13871975243091583,-0.3162156641483307,0.34959930181503296,-0.03767287731170654,-0.14726220071315765,0.4051371216773987,-0.11770369857549667,-0.1311609297990799,0.3212392330169678,-0.18689265847206116,0.025681890547275543,-0.42703941464424133,0.20223809778690338,-0.052408136427402496,-0.0475156232714653,0.16010381281375885,-0.012484781444072723,-0.22306512296199799,0.14142708480358124,-0.05805632844567299,0.25228023529052734,-0.11604298651218414,-0.009164323098957539,0.21267536282539368,-0.06138940900564194,0.1423357129096985,0.030886078253388405,-0.1302875131368637,-0.07285277545452118,-0.09185530245304108,0.14891314506530762,-0.09569638967514038,0.13444237411022186,-0.10697455704212189,-0.0569436214864254,-0.026688728481531143,-0.11003866791725159,0.012135546654462814,0.24319902062416077,-0.06392689049243927,0.09894911199808121,-0.16509008407592773,0.1342795044183731,-0.12180443853139877,0.10482051968574524,-0.03918806090950966,0.03949170187115669,0.15137754380702972,0.08259173482656479,0.0054261209443211555,0.12851180136203766,0.09860996901988983,-0.014089315198361874,0.2599683403968811,-0.09962683171033859,0.004217227455228567,0.11967964470386505,0.055746808648109436,0.11738616228103638,-0.1112080067396164,-0.06347164511680603,0.17107637226581573,0.03479969874024391,-0.040441520512104034,0.04485570266842842,0.10364878177642822,0.1436939537525177,-0.12682265043258667,-0.15269042551517487,0.0905432477593422,-0.24518218636512756,0.014715013094246387,0.011648562736809254,-0.20302951335906982,0.03695274889469147,-0.1312135010957718,0.14953617751598358,-0.08816447108983994,-0.022862160578370094,-0.06738124787807465,0.1399722397327423,-0.0035155967343598604,0.2317253202199936,-0.0021127196960151196,-0.058039549738168716,-0.23618967831134796,-0.13437670469284058,0.1741008460521698,0.08798079192638397,0.01522497832775116,0.030793381854891777,-0.03487885370850563,0.11190848797559738,0.11891400068998337,-0.20438049733638763,-0.0033483707811683416,-0.0646243467926979,-0.2220402956008911,0.016182247549295425,0.12381777167320251,-0.25394099950790405,0.06997109204530716,-0.0830567255616188,-0.16088682413101196,0.1010989248752594,-0.03534211218357086,0.09896786510944366,-0.12492726743221283,0.06428907811641693,-0.06567999720573425,-0.2312006652355194,0.18972228467464447,-0.22161826491355896,-0.2893446981906891,0.047665517777204514,0.23910565674304962,0.1409890204668045,0.03417309746146202,0.24800631403923035,0.2785031497478485,-0.11157404631376266,0.10489775985479355,0.1336178481578827,-0.16016192734241486,-0.10536746680736542,-0.057506926357746124,0.16474676132202148,0.08288823068141937,0.17142930626869202,-0.16863808035850525,-0.015458755195140839,-0.24003447592258453,-0.06465364992618561,0.11726418882608414,0.24805709719657898,-0.20912520587444305,0.021190809085965157,-0.11736718565225601,-0.048885755240917206,0.08629104495048523,0.30014678835868835,-0.1588975191116333,0.04516492038965225,0.18831665813922882,-0.1822374314069748,0.2042309194803238,0.25671476125717163,0.055830713361501694,0.03177869692444801,0.3254658281803131,-0.1231798604130745,0.2626408636569977,0.038445573300123215,-0.1687004715204239,0.01047470886260271,-0.12621697783470154,0.10232922434806824,-0.11342374235391617,-0.0022548246197402477,-0.04893597587943077,0.008162681013345718,0.048479724675416946,0.014531409367918968,-0.007306733634322882,-0.004680557642132044,0.057372238487005234,-0.0031087296083569527,0.00032192468643188477,-0.03751413896679878,0.023602180182933807,-0.010233236476778984,-0.027137169614434242,0.041840240359306335,0.45528122782707214,-0.29652559757232666,0.7621762752532959,-0.6774847507476807,-0.06279432773590088,0.8522014617919922,0.7889406085014343,-0.5442324280738831,0.1468392014503479,-0.02468600496649742,-0.18862628936767578,-0.4093722701072693,0.39574962854385376,-0.7030749917030334,0.18509455025196075,0.4577229917049408,-0.019805537536740303,0.4780151844024658,0.022437220439314842,0.17546047270298004,0.3445015549659729,-0.0991971418261528,0.07955147325992584,-0.04862489551305771,-0.26235297322273254,0.06879211217164993,-0.07596064358949661,0.0036397327203303576,0.5941781401634216,0.07500335574150085,0.34806281328201294,0.037020474672317505,0.08233043551445007,0.08324499428272247,-0.2496531456708908,0.15162840485572815,0.24708737432956696,-0.1087319552898407,0.1722818911075592,0.3347371518611908,-0.10092563182115555,0.39826151728630066,0.015203150920569897,0.05795584246516228,0.41043397784233093,-0.015481389127671719,0.3347387909889221,0.1418372392654419,-0.11880817264318466,0.2785728871822357,-0.14166216552257538,0.3183373510837555,-0.2784005403518677,-0.23875032365322113,-0.11038742959499359,-0.2898883521556854,-0.12589919567108154,-0.2528693974018097,0.17150145769119263,-0.12222736328840256,0.44082018733024597,0.39268407225608826,-0.1086287796497345,0.17129647731781006,0.24826565384864807,-0.14932183921337128,0.017244979739189148,-0.20264264941215515,0.05905834957957268,0.07150052487850189,0.2297586351633072,0.0598052479326725,-0.048238955438137054,0.11540143936872482,0.02128124237060547,-0.02611229568719864,-0.19786961376667023,0.13913409411907196,-0.12817886471748352,-0.17519645392894745,-0.4292900264263153,0.005472706630825996,-0.5020477175712585,0.4081651568412781,-0.18425214290618896,-0.16501975059509277,-0.06294768303632736,-0.4044792056083679,-0.1296212524175644,-0.014429469592869282,-0.3089745342731476,0.43870463967323303,0.0968947485089302,0.4111843407154083,-0.4849013686180115,0.37910711765289307,-0.24414734542369843,-0.050940509885549545,0.05078829824924469,0.04378862679004669,0.3619453012943268,0.20050011575222015,0.3281515836715698,0.24609701335430145,0.18804287910461426,0.18921945989131927,-0.5943640470504761,-0.06297490745782852,0.122268445789814,-0.11519545316696167,0.1928246021270752,-0.050548553466796875,0.07864689826965332,0.06999573111534119,0.1320428103208542,0.21622134745121002,-0.28393468260765076,-0.21738162636756897,-0.08561203628778458,0.12551474571228027,0.04965447261929512,-0.23774315416812897,-0.022005822509527206,0.1583419293165207,0.3436175584793091,-0.09781614691019058,0.09753706306219101,0.033154480159282684,0.2775377035140991,0.11441873759031296,0.3287622630596161,-0.26531699299812317,-0.27440717816352844,0.2715018093585968,0.0838107243180275,0.13808386027812958,0.1960902065038681,-0.24912580847740173,0.5841125249862671,-0.3962208926677704,0.06610152125358582,-0.2443327009677887,-0.0936586856842041,-0.02525830827653408,-0.10628381371498108,0.1223377138376236,-0.29955604672431946,-0.17869475483894348,-0.01951438933610916,-0.15605787932872772,-0.16145777702331543,-0.12247961759567261,-0.24465899169445038,-0.20892243087291718,0.27753862738609314,0.17210783064365387,0.2283056527376175,-0.08228188753128052,0.014074966311454773,0.14134472608566284,-0.17897221446037292,0.1838049739599228,0.1827685385942459,-0.2782561779022217,-0.04306141287088394,0.020486097782850266,0.14003747701644897,0.20291069149971008,0.147051602602005,0.2897730767726898,0.15221545100212097,0.020573267713189125,0.24580681324005127,0.13879069685935974,-0.017414236441254616,-0.19608116149902344,-0.03705210983753204,0.09034457802772522,-0.41502583026885986,0.21768562495708466,-0.16819541156291962,-0.36300140619277954,0.03107263892889023,-0.11410275101661682,0.03776763007044792,-0.2052689641714096,-0.24600188434123993,0.08865124732255936,-0.22941456735134125,0.2686108946800232,-0.11118873953819275,0.31154507398605347,0.08806910365819931,-0.177023783326149,0.24079518020153046,-0.028548365458846092,0.15422789752483368,-0.07723001390695572,0.10531827062368393,-0.014753928408026695,-0.04670998826622963,-0.10236776620149612,-0.47349366545677185,-0.11893187463283539,-0.21101553738117218,0.12649942934513092,-0.06019245460629463,-0.30557388067245483,0.011025757528841496,-0.43582865595817566,0.15840736031532288,-0.10656226426362991,0.2362058460712433,-0.05914876610040665,0.2442040741443634,0.24593254923820496,0.3409839868545532,0.1593298465013504,-0.2996334731578827,0.08081325143575668,-0.06724749505519867,-0.2437652051448822,-0.07013875991106033,0.02416466362774372,-0.12118767201900482,-0.3127397298812866,-0.25220832228660583,0.11923439055681229,-0.23637177050113678,0.0641690120100975,0.24859297275543213,0.030389582738280296,0.05174785479903221,-0.1524496227502823,-0.027222253382205963,0.10351911187171936,-0.3994116187095642,0.00045108667109161615,-0.3689696192741394,0.24072083830833435,-0.17200841009616852,0.20485343039035797,-0.09176035970449448,-0.14187394082546234,0.06364162266254425,-0.00437684403732419,0.14858628809452057,0.2001580446958542,-0.2065558135509491,0.1583094447851181,-0.005450198892503977,-0.08398838341236115,0.23592421412467957,0.19579745829105377,-0.20856595039367676,-0.04795897752046585,0.18819810450077057,-0.2633931040763855,0.20206435024738312,-0.057755570858716965,-0.046943701803684235,0.15223991870880127,0.19075828790664673,0.1838981807231903,-0.11160136014223099,-0.0788518637418747,-0.1767895221710205,-0.10694378614425659,-0.287715345621109,0.2243262678384781,0.08660915493965149,-0.08801694959402084,0.0546015202999115,-0.2811615765094757,0.25440725684165955,-0.3206327557563782,-0.218716099858284,-0.039571452885866165,0.12078050523996353,0.005158336833119392,-0.02640347369015217,-0.2684106230735779,0.09499596804380417,-0.0209868885576725,0.14124734699726105,0.07536937296390533,0.0384744256734848,0.017255008220672607,0.10141968727111816,0.08712738752365112,0.15543542802333832,-0.5519924759864807,-0.7159217596054077,-0.5172494053840637,0.2654005289077759,0.1008550152182579,0.21437159180641174,-0.5810388326644897,-0.2729593515396118,-0.3865746259689331,-0.045509759336709976,-0.2038348913192749,-0.12903563678264618,0.006724703125655651,0.09808342158794403,0.07316284626722336,0.2755216360092163,-0.07311766594648361,0.2198060005903244,0.020341170951724052,-0.22843049466609955,0.03693702444434166,0.19548292458057404,0.008383743464946747,-0.04508574679493904,-0.7135727405548096,-0.35406818985939026,-0.5712911486625671,0.03565497323870659,-0.013128903694450855,-0.02854900434613228,-0.42953523993492126,0.2730805575847626,-0.14092153310775757,-0.006703776307404041,0.7662891745567322,0.34434863924980164,0.08077197521924973,0.16821278631687164,-0.0366252139210701,0.16419634222984314,0.46879521012306213,0.27282044291496277,-0.0021792773623019457,-0.019658003002405167,-0.06726852059364319,-0.21848636865615845,-0.08641473203897476,0.011981629766523838,-0.23701390624046326,-0.0015438601840287447,0.027331488206982613,0.18094292283058167,-0.061835989356040955,-0.02471780963242054,-0.04198109731078148,0.016159487888216972,-0.01098676398396492,0.3846786618232727,-0.1914578527212143,0.03648766502737999,-0.40200871229171753,-0.4164944887161255,-0.03848008066415787,0.3329007625579834,-0.17718732357025146,-0.18384620547294617,-0.16013991832733154,0.4165560007095337,-0.012044643983244896,0.06265542656183243,-0.018402447924017906,-0.20825433731079102,0.08502991497516632,0.0565917044878006,-0.045334815979003906,0.33178362250328064,-0.08661315590143204,-0.1313658207654953,-0.2492743283510208,-0.3742520809173584,0.14231136441230774,-0.020320452749729156,-0.5545510649681091,0.2753015160560608,0.20538833737373352,-0.06375547498464584,-0.09730882942676544,0.11383674293756485,-0.26088112592697144,-0.08965195715427399,-0.29416775703430176,0.2094918191432953,-0.04198981076478958,-0.33321303129196167,-0.29364046454429626,0.1370401829481125,-0.06880458444356918,0.02486279048025608,-0.09812995791435242,-0.04336869716644287,-0.025106551125645638,0.08874862641096115,0.12758488953113556,0.0021004462614655495,-0.2097804993391037,0.0973593220114708,-0.10575492680072784,0.13818815350532532,-0.19637949764728546,0.0767725259065628,0.07658427953720093,0.002685128478333354,-0.2996119558811188,0.030225461348891258,-0.062205199152231216,0.019622566178441048,0.12981662154197693,-0.027199987322092056,-0.1899205893278122,0.05448751896619797,-0.08933725208044052,0.08365657180547714,-0.21099179983139038,-0.11938689649105072,-0.21564120054244995,0.09690282493829727,0.10135508328676224,0.18686960637569427,-0.10718603432178497,0.15507841110229492,0.054442740976810455,-0.2531539797782898,0.06036515161395073,-0.027719847857952118,0.06626978516578674,-0.14196260273456573,-0.03142591193318367,0.09966379404067993,-0.11035079509019852,0.19591739773750305,0.049012620002031326,-0.5262115597724915,-0.05742289870977402,0.0822363942861557,-0.3217560350894928,0.12833747267723083,0.08324635028839111,0.13931724429130554,-0.2538415789604187,-0.06317083537578583,0.10349250584840775,0.05737700313329697,-0.09857981652021408,-0.013689684681594372,-0.19259293377399445,0.09390050172805786,-0.42640557885169983,0.25787925720214844,0.038194309920072556,-0.0027426721062511206,-0.019621141254901886,0.18287554383277893,0.0441475510597229,0.219588503241539,-0.2844907343387604,0.25507575273513794,-0.26507627964019775,0.17271848022937775,0.06447743624448776,-0.10222309082746506,-0.038667380809783936,0.07383573800325394,-0.24851326644420624,0.15037183463573456,-0.2290683537721634,0.15645886957645416,0.170044407248497,-0.11599546670913696,-0.010754297487437725,0.19727276265621185,0.17267465591430664,-0.26358726620674133,-0.013333081267774105,-0.20587773621082306,-0.11129701137542725,0.34052151441574097,-0.06391366571187973,0.2102586030960083,-0.04062379151582718,-0.09732548147439957,-0.15797610580921173,-0.0071375141851603985,0.2978023290634155,0.27613183856010437,0.31270354986190796,-0.1831066608428955,-0.029510485008358955,-0.16570812463760376,0.17638306319713593,0.3262849450111389,0.2576533555984497,-0.05530751124024391,0.026938172057271004,-0.07650525122880936,-0.08586516976356506,0.06986690312623978,-0.08544725924730301,-0.035436876118183136,-0.2326386719942093,0.039871569722890854,0.037141285836696625,0.11682599037885666,0.15436771512031555,0.02238255925476551,0.022106438875198364,-0.04179827868938446,0.12124253809452057,0.09004231542348862,0.2005341798067093,0.024934345856308937,-0.09047424048185349,-0.054782282561063766,-0.10580522567033768,0.11766383051872253,-0.042952995747327805,-0.24160155653953552,-0.2836185395717621,-0.15494097769260406,-0.05657384172081947,-0.06102708354592323,-0.1105455756187439,0.010985608212649822,-0.2348392903804779,-0.1508694887161255,0.13463717699050903,0.005321051925420761,-0.02157694287598133,-0.022747093811631203,0.16951826214790344,-0.12118253856897354,-0.012218483723700047,0.17179368436336517,0.03579109162092209,-0.002851912984624505,-0.005965088959783316,0.02653408981859684,-0.16375529766082764,0.09533791244029999,0.0656684935092926,-0.08735606074333191,0.12945149838924408,-0.004708140157163143,-0.1367635577917099,0.2272011637687683,0.0836440771818161,0.15190184116363525,-0.1224832758307457,-0.16988952457904816,0.30111315846443176,-0.5101503729820251,0.3002481460571289,0.2668623626232147,0.09326618164777756,-0.06342153251171112,0.14942169189453125,0.0031659419182687998,0.01082952506840229,0.13078051805496216,0.18960940837860107,0.021000774577260017,-0.36417242884635925,0.016021253541111946,0.2296556979417801,-0.339606910943985,0.35621440410614014,-0.07678006589412689,-0.10889183729887009,-0.09969458729028702,0.09881896525621414,-0.12271267175674438,0.36013057827949524,-0.19174474477767944,-0.11887291818857193,-0.07938149571418762,0.10494763404130936,-0.21643377840518951,-0.01083920244127512,0.07662617415189743,0.1156318336725235,0.2770146131515503,-0.15087752044200897,0.14625917375087738,-0.05399588122963905,-0.052961304783821106,0.23258695006370544,0.09782932698726654,0.11448883265256882,0.07506774365901947,0.07292390614748001,-0.00105221604462713,-0.024029141291975975,0.03634233772754669,0.4059687554836273,0.17743851244449615,-0.21162569522857666,-0.18519659340381622,-0.09291239827871323,0.2074870616197586,-0.04858853295445442,0.16319572925567627,-0.08386587351560593,-0.29797324538230896,0.10743802040815353,0.12201803922653198,0.08344860374927521,0.276406466960907,-0.09144213795661926,-0.07558698952198029,-0.20376498997211456,-0.014706437475979328,0.2940005958080292,-0.008767221122980118,-0.07416409999132156,0.2297731190919876,0.11582474410533905,0.015517419204115868,-0.21855318546295166,-0.017354357987642288,0.004169312305748463,-0.05758034065365791,-0.1848427802324295,0.04112222418189049,0.10409082472324371,0.06883475929498672,-0.10990297794342041,-0.14693033695220947,0.31726980209350586,0.07471263408660889,-0.0196236502379179,-0.18813729286193848,-0.17127393186092377,0.08461601287126541,0.04407351836562157,0.08888130635023117,0.12489655613899231,0.018853068351745605,-0.09213177859783173,-0.10425049811601639,0.48659953474998474,0.3753430247306824,-0.17368952929973602,0.13391965627670288,-0.13216648995876312,-0.08551936596632004,0.06636282801628113,-0.07575049251317978,-0.06924043595790863,-0.05036831647157669,-0.37715744972229004,0.07494297623634338,0.18200621008872986,0.2569291591644287,0.10248444229364395,0.050882767885923386,-0.19273434579372406,-0.021388933062553406,0.07845114171504974,0.20237822830677032,-0.029531875625252724,-0.1733810305595398,0.08672404289245605,0.11448274552822113,-0.22745002806186676,-0.024581724777817726,-0.09646426141262054,0.06600098311901093,-0.04966003820300102,0.14143510162830353,0.05247456952929497,0.08357439935207367,-0.06082945689558983,0.08179987967014313,0.1763557493686676,-0.13935856521129608,-0.07598764449357986,-0.14910081028938293,-0.24703848361968994,0.19144535064697266,0.08389350026845932,0.1787964552640915,0.07980868965387344,0.044223539531230927,0.04660313203930855,0.1787850707769394,0.08217492699623108,0.13288915157318115,-0.08899037539958954,0.13497024774551392,0.015840161591768265,0.10379225015640259,-0.039849188178777695,-0.06103983148932457,-0.11382747441530228,-0.15035171806812286,-0.018697446212172508,0.01144010666757822,-0.14812429249286652,0.08488725870847702,-0.015512981452047825,0.07381704449653625,-0.12024795264005661,0.11661780625581741,-0.05266685038805008,-0.011032935231924057,0.0963234156370163,0.05149020627140999,0.24727052450180054,-0.0738704651594162,0.21576163172721863,0.18920400738716125,0.004120015073567629,-0.1130199208855629,-0.05073440447449684,-0.022083651274442673,-0.0024740202352404594,-0.0307147316634655,0.029257819056510925,0.03722149506211281,-0.09543930739164352,0.04313123598694801,0.20881304144859314,0.072333924472332,-0.024961011484265327,-0.004542140755802393,0.014203734695911407,-0.03741573914885521,0.024220971390604973,0.005121196154505014,-0.08134256303310394,0.16664735972881317,0.007996829226613045,0.1411297768354416,-0.009968469850718975,-0.11118657141923904,-0.15003728866577148,-0.01972690224647522,-0.06068078801035881,0.07162205874919891,-0.021431801840662956,0.05407603457570076,-0.11165596544742584,-0.17159368097782135,0.27658799290657043,0.07844163477420807,0.16230575740337372,0.08866067230701447,-0.1542372852563858,-0.15371815860271454,0.0034868756774812937,0.016620008274912834,0.03852676972746849,0.030202997848391533,0.07132525742053986,0.04310652241110802,-0.0052797673270106316,-0.14162851870059967,0.11192375421524048,-0.16961556673049927,-0.04539433494210243,0.06784531474113464,0.015438040718436241,0.02291252836585045,0.06366997212171555,0.021443720906972885,-0.04782252758741379,-0.011601006612181664,-0.06276234984397888,0.19115082919597626,0.3130687475204468,-0.000025681360057205893,-0.4033099412918091,-0.08170421421527863,-0.25273987650871277,-0.14215637743473053,0.007429695688188076,0.09765145927667618,-0.37779954075813293,-0.42293497920036316,-0.2871497571468353,-0.2978106141090393,-0.1771569699048996,-0.376618355512619,0.2856203019618988,0.00004745182741316967,-0.022121166810393333,-0.19010217487812042,0.13269564509391785,0.17773087322711945,0.13288484513759613,0.46427419781684875,0.16485878825187683,-0.147610604763031,0.09878340363502502,0.23479966819286346,-0.21498586237430573,-0.3573954701423645,-0.2277597188949585,-0.16898344457149506,-0.15146538615226746,-0.20203958451747894,0.19103316962718964,-0.08897531777620316,-0.24377545714378357,0.49970826506614685,-0.16905593872070312,0.3430687487125397,-0.009521807543933392,-0.04230497032403946,0.06748510152101517,0.07208319008350372,-0.04303717985749245,0.052012499421834946,0.07359982281923294,-0.13991433382034302,-0.018612083047628403,-0.09310203045606613,-0.021573420614004135,-0.10902775824069977,-0.1000535637140274,-0.04292052239179611,-0.2322140485048294,0.05251162126660347,0.24779394268989563,0.14262428879737854,0.1596967577934265,0.11899951100349426,0.1252184361219406,0.09832648932933807,0.01844392903149128,-0.0005398871144279838,-0.06013021618127823,0.03738638013601303,0.050344835966825485,-0.12001600116491318,-0.2097809761762619,-0.001037247246131301,0.12322289496660233,0.21019187569618225,-0.05359122157096863,0.1860714554786682,-0.06612465530633926,-0.10500942170619965,-0.16218900680541992,0.05078742280602455,-0.06012517586350441,0.05074607580900192,0.036043595522642136,-0.07018204778432846,0.04050254821777344,0.0805506631731987,0.1938510686159134,0.05795344337821007,-0.1387646347284317,0.1824922263622284,0.2524217367172241,0.026105660945177078,0.011064167134463787,0.06995445489883423,-0.018495462834835052,-0.20298822224140167,-0.14792823791503906,0.05953814834356308,0.10784846544265747,-0.20685407519340515,-0.0283527709543705,-0.1691407561302185,-0.05819322168827057,0.009413003921508789,-0.11280845105648041,0.11637138575315475,0.06750249117612839,-0.06705185025930405,-0.04931287467479706,-0.1275886744260788,-0.16091349720954895,0.11761641502380371,-0.11111623048782349,-0.1337561458349228,-0.10826180875301361,-0.21285311877727509,0.12619298696517944,-0.10952068120241165,-0.12127605825662613,0.04252515360713005,-0.038345783948898315,0.23038877546787262,-0.05923286825418472,-0.10168027132749557,0.10713697224855423,0.11182592064142227,-0.10451331734657288,-0.03694191947579384,-0.1785432994365692,0.04437040910124779,0.04938136041164398,0.025767182931303978,0.13188105821609497,-0.21660660207271576,-0.07171711325645447,0.12242958694696426,-0.30853843688964844,0.2587553858757019,0.02207593433558941,-0.055713407695293427,-0.08763115108013153,0.09395955502986908,-0.23782280087471008,0.01738281361758709,0.04393487796187401,0.11286374926567078,-0.03466503322124481,-0.21867635846138,-0.03068714775145054,0.14190106093883514,-0.06147534400224686,0.11431125551462173,0.02529582567512989,0.2089015543460846,-0.05840394273400307,0.13192829489707947,-0.12628675997257233,0.016723889857530594,0.14422741532325745,0.06340726464986801,0.011451018042862415,0.18959851562976837,-0.16086003184318542,0.037238288670778275,-0.043892525136470795,0.037125907838344574,0.0688200294971466,0.010893564671278,0.06520068645477295,0.03782249614596367,-0.07123715430498123,0.10405667126178741,-0.05360900238156319,0.0763721838593483,-0.009185859933495522,-0.11315754055976868,0.14509302377700806,0.12317079305648804,0.01592167094349861,0.011113883927464485,0.005881153512746096,0.018006443977355957,0.025067299604415894,-0.19647496938705444,-0.05068404600024223,0.021869458258152008,0.18595188856124878,0.07187548279762268,-0.04930005595088005,-0.07439148426055908,-0.06459911167621613,-0.13626012206077576,-0.0607047937810421,-0.06040828302502632,0.03876068443059921,-0.09252392500638962,0.15786461532115936,0.15284229815006256,0.011245341040194035,0.18475641310214996,-0.1752016544342041,0.05738194286823273,0.2916513681411743,-0.29193931818008423,-0.20309925079345703,-0.11962734907865524,-0.12249253690242767,0.04484706372022629,0.2939431369304657,-0.3078821897506714,-0.011863088235259056,-0.1868211328983307,0.21002711355686188,0.07777190953493118,0.2282262146472931,-0.2936755120754242,0.03469204530119896,-0.2951573133468628,0.30008646845817566,0.1640910655260086,0.07658841460943222,-0.3375030755996704,-0.1633262187242508,-0.12298876792192459,0.07770829647779465,0.11447852849960327,0.3284294307231903,-0.27657511830329895,-0.08258567005395889,-0.1602526158094406,0.34303101897239685,-0.16906718909740448,-0.14085696637630463,-0.10996158421039581,-0.015133410692214966,0.1041485145688057,-0.319515198469162,-0.09249606728553772,0.21826930344104767,-0.3708913326263428,0.030574936419725418,-0.2346430867910385,0.30595389008522034,-0.2389901727437973,0.08165834099054337,-0.008644070476293564,-0.07600926607847214,0.03409164771437645,-0.002998433308675885,-0.15236347913742065,0.3329066038131714,0.11321651935577393,0.06245286762714386,0.046832434833049774,-0.12452806532382965,-0.24667710065841675,0.24133709073066711,-0.020691804587841034,0.08273706585168839,-0.34174370765686035,-0.07037588953971863,-0.29260605573654175,0.29388338327407837,-0.2374877631664276,0.24953807890415192,-0.4396246075630188,-0.005662747658789158,-0.3103177547454834,0.2135051190853119,0.0246550515294075,-0.06747586280107498,0.05547257140278816,0.08906019479036331,-0.149410218000412,0.4092192053794861,-0.09731501340866089,0.18518534302711487,-0.1998189389705658,0.0775693953037262,0.14376993477344513,-0.10787554085254669,-0.10639801621437073,-0.07668609917163849,0.3292335569858551,-0.07868780940771103,-0.2181394249200821,0.0736919492483139,-0.08144418150186539,0.20862965285778046,-0.12673696875572205,0.12788911163806915,0.5671215653419495,0.007072886917740107,0.01859535276889801,0.0956103652715683,-0.3584226965904236,0.12351128458976746,0.010529253631830215,0.0070532094687223434,-0.08254324644804001,-0.05689729005098343,0.3424486219882965,0.04587794840335846,0.1581317037343979,0.010422487743198872,0.09162840247154236,-0.020323224365711212,-0.5295252203941345,0.10406630486249924,0.6026498675346375,-0.7955838441848755,0.24692092835903168,-0.6434215903282166,-0.4144081473350525,-0.6202509999275208,0.5615525841712952,-0.9782206416130066,-0.25709909200668335,-1.171291708946228,0.07941713184118271,-0.7954089045524597,0.6370495557785034,-0.5759448409080505,-0.2882812023162842,-0.057011689990758896,0.1605977565050125,0.14500653743743896,0.2826608717441559,-0.20608825981616974,-0.4701232314109802,-0.06151610612869263,-0.40257012844085693,-0.23635026812553406,0.3862864375114441,-0.14016784727573395,0.20894281566143036,-0.1380704790353775,-0.03231244161725044,-0.09596281498670578,-0.23986180126667023,-0.07226711511611938,0.1726851463317871,0.028292011469602585,-0.4456213116645813,-0.13961350917816162,-0.07678481936454773,-0.32191962003707886,0.11749474704265594,-0.3827871084213257,-0.0037097029853612185,0.34830936789512634,0.15834398567676544,0.183442160487175,0.08105500787496567,0.22174403071403503,-0.03426787629723549,-0.19943736493587494,0.09181356430053711,0.08326422423124313,0.0631694495677948,0.17961150407791138,-0.07733484357595444,0.046661559492349625,-0.05876656994223595,0.04709373787045479,-0.26724302768707275,-0.20240898430347443,-0.06663845479488373,0.1725625991821289,-0.005205847322940826,0.0903414934873581,0.03764235973358154,0.3647342026233673,-0.08767253160476685,0.05658414587378502,-0.2482960969209671,-0.052536819130182266,0.1689368337392807,-0.1001005694270134,-0.07651107013225555,-0.05966353788971901,0.21020039916038513,0.24878822267055511,0.07540959864854813,-0.20570185780525208,0.03702254965901375,-0.1610514521598816,0.668508768081665,-0.12319758534431458,-0.3414858877658844,-0.3549960255622864,-0.03443605452775955,0.032147426158189774,0.03333485871553421,0.2530153691768646,0.21068382263183594,0.07119960337877274,-0.023579122498631477,0.26766011118888855,-0.2688080370426178,-0.11451799422502518,-0.028008565306663513,-0.01820489950478077,-0.35279572010040283,-0.3513486981391907,-0.18072649836540222,-0.012757045216858387,-0.0774415135383606,-0.12221134454011917,-0.39114800095558167,-0.396594762802124,-0.037648897618055344,0.0271412692964077,0.13795366883277893,-0.08819455653429031,-0.0757284089922905,-0.06261058896780014,-0.1372382640838623,0.33127105236053467,-0.022536521777510643,-0.025650754570961,0.3291967809200287,0.035497043281793594,-0.0022797405254095793,0.09222953766584396,-0.12053651362657547,-0.27847063541412354,0.40918341279029846,-0.058772973716259,-0.4313075542449951,0.3998355269432068,-0.056252557784318924,0.24806106090545654,-0.2146115005016327,0.324390709400177,0.08090853691101074,-0.00334073044359684,-0.10501189529895782,-0.015264153480529785,0.04181665927171707,-0.07868406921625137,0.04025600105524063,-0.026405436918139458,0.06714320182800293,0.33169400691986084,-0.3322267234325409,0.17963236570358276,-0.1026965081691742,0.2315370887517929,0.4881637394428253,0.14689314365386963,0.05476802960038185,0.07717237621545792,-0.2518868148326874,-0.3106319308280945,-0.33710959553718567,-0.19271041452884674,0.08986783772706985,0.0637730285525322,-0.012711613439023495,-0.00848750676959753,0.2439378798007965,-0.15630970895290375,-0.19230063259601593,0.1255214959383011,0.08851392567157745,0.20276734232902527,-0.14247123897075653,0.5380151271820068,0.1561964899301529,0.4337208867073059,0.040650539100170135,-0.47881561517715454,0.36124593019485474,-0.26715701818466187,-0.14101234078407288,-0.06440750509500504,0.20168377459049225,0.5708862543106079,0.4513882100582123,0.07577548921108246,-0.014219393953680992,-0.24384477734565735,-0.06890961527824402,-0.02982952632009983,-0.11010969430208206,0.025403685867786407,-0.07916951179504395,-0.16822636127471924,0.03043898567557335,0.030162688344717026,0.07360650599002838,0.20052240788936615,-0.26254719495773315,0.19194500148296356,0.047891419380903244,0.1987137496471405,-0.17980463802814484,0.17598813772201538,-0.01852615363895893,0.2789992392063141,-0.1832168847322464,0.24814951419830322,0.042928989976644516,0.15080197155475616,0.2095833271741867,0.13955874741077423,-0.22008377313613892,0.24267050623893738,0.2625536322593689,-0.13557842373847961,0.06357833743095398,-0.05812587961554527,0.0011253064731135964,-0.11818985641002655,0.04461422562599182,-0.18804751336574554,-0.405865877866745,-0.11214882880449295,0.06263049691915512,0.22876162827014923,0.05147857591509819,-0.0008454649359919131,0.11392556875944138,0.1285068541765213,-0.3659358322620392,-0.30056676268577576,-0.03362270072102547,-0.164657324552536,0.2907991111278534,-0.015703236684203148,0.18155544996261597,0.15298031270503998,-0.20277924835681915,0.18938466906547546,-0.42332157492637634,0.11776138097047806,0.29881444573402405,-0.018822241574525833,0.31171220541000366,0.2701079547405243,-0.03506609797477722,0.12503904104232788,-0.06516611576080322,0.3309653103351593,0.022306758910417557,-0.12349749356508255,0.11699970066547394,0.08499961346387863,0.141636922955513,-0.02088281884789467,-0.2619360089302063,-0.14591042697429657,0.16993238031864166,0.05542522668838501,-0.1305074244737625,0.09751096367835999,-0.1896234154701233,0.004275742918252945,-0.0380045585334301,0.1625073254108429,0.16195179522037506,0.34842440485954285,0.20782285928726196,-0.10421307384967804,-0.006466166581958532,0.060758091509342194,-0.011279861442744732,0.25782153010368347,-0.10821066796779633,0.2224964052438736,0.0950753465294838,-0.03265189006924629,0.20619097352027893,-0.0037730783224105835,-0.1058371365070343,0.19687075912952423,-0.2531282901763916,-0.3273840844631195,-0.15831664204597473,-0.19489189982414246,0.05041985958814621,-0.09533768147230148,-0.14207914471626282,-0.056255415081977844,0.12425108999013901,0.17425470054149628,-0.00518055260181427,0.014555498026311398,0.11732461303472519,-0.18918907642364502,0.19717492163181305,-0.36194202303886414,-0.18435673415660858,-0.04247826710343361,-0.15589600801467896,0.10221438109874725,0.03781531751155853,0.05029299110174179,-0.30940932035446167,-0.16901928186416626,0.07924961298704147,0.036164071410894394,-0.09626244008541107,0.09743019193410873,-0.1331758201122284,0.018802903592586517,0.4179432988166809,0.0817648246884346,0.0027039567939937115,-0.00046954656136222184,0.23532429337501526,0.16057489812374115,0.012043879367411137,-0.13734544813632965,-0.08990705758333206,-0.014411859214305878,-0.06910493969917297,-0.2597464621067047,0.208101287484169,0.27339258790016174,0.158580482006073,0.10876914113759995,-0.1522928774356842,-0.16327603161334991,0.07419352233409882,0.01362369954586029,-0.1298465132713318,-0.10527253150939941,0.0968201756477356,0.15537171065807343,0.10313903540372849,0.30959466099739075,0.0829542875289917,0.18468554317951202,0.06972618401050568,-0.16602210700511932,0.3237302899360657,0.059704650193452835,-0.1241089403629303,0.004344604443758726,-0.1381237655878067,0.11163731664419174,0.1217537373304367,-0.05386953428387642,0.19812041521072388,-0.043536145240068436,0.22669216990470886,-0.174025297164917,0.18657343089580536,0.09521359205245972,0.04514271393418312,-0.22598247230052948,0.07029876857995987,0.11603149771690369,0.18633553385734558,-0.02443510666489601,-0.008137675002217293,0.37628597021102905,0.20199888944625854,-0.07611465454101562,-0.007326569873839617,-0.14384247362613678,-0.04919954016804695,-0.35134825110435486,-0.19576813280582428,-0.18450383841991425,0.031608469784259796,-0.028411293402314186,-0.1541128158569336,-0.16355028748512268,0.15407465398311615,-0.08346782624721527,0.09699860215187073,0.030769307166337967,-0.12271109223365784,0.005547437351197004,-0.12138050049543381,-0.0036321482621133327,0.07528679817914963,-0.09423339366912842,-0.31635791063308716,-0.1268991380929947,0.058674223721027374,-0.16598506271839142,-0.07984822988510132,0.03201472386717796,-0.037955086678266525,0.2193782776594162,0.05637991428375244,0.27611321210861206,0.08903220295906067,-0.0036476145032793283,-0.15736322104930878,-0.049801453948020935,-0.13369950652122498,0.06776119768619537,-0.05012506619095802,-0.026093633845448494,0.06495882570743561,-0.09821899235248566,-0.11255486309528351,0.023308686912059784,-0.07121580094099045,-0.07879770547151566,0.11654098331928253,-0.09235114604234695,-0.31069570779800415,0.0035916294436901808,-0.09759953618049622,0.0066495733335614204,0.07547701150178909,-0.16554364562034607,0.08926281332969666,0.29552599787712097,0.13368992507457733,0.051016949117183685,0.11621367931365967,0.062380049377679825,0.15192274749279022,0.20553013682365417,-0.23635365068912506,-0.02237875759601593,-0.04312962666153908,0.0603836290538311,0.027133405208587646,-0.03237108886241913,0.17858819663524628,-0.011931028217077255,-0.11583316326141357,0.005310181062668562,-0.0021036455873399973,0.14847788214683533,-0.11329385638237,-0.2531677186489105,0.02157023549079895,0.23602040112018585,0.11464224010705948,0.03982798382639885,-0.18172721564769745,-0.0607985183596611,0.2782100737094879,0.02206609770655632,0.15016919374465942,-0.11312223970890045,0.1221647560596466,0.1544962376356125,-0.23162510991096497,0.12327336519956589,-0.0036934916861355305,-0.13454660773277283,0.00030591958784498274,-0.050902124494314194,-0.137619748711586,-0.11678469181060791,0.13367122411727905,0.19596658647060394,0.20865589380264282,0.015065542422235012,-0.2560429573059082,0.0583023726940155,0.011964064091444016,0.01891799084842205,0.09533219784498215,0.16853490471839905,0.03825298696756363,0.12404260039329529,-0.2379077523946762,-0.3522123098373413,0.09075410664081573,0.06688858568668365,-0.1362023651599884,0.07631368190050125,-0.09957338124513626,-0.007814692333340645,0.011516218073666096,0.026756931096315384,0.21279165148735046,0.21377328038215637,0.004776155110448599,-0.006464142818003893,0.16701678931713104,-0.005664703901857138,-0.008342922665178776,-0.12922079861164093,0.11703862994909286,0.31323757767677307,0.3272274434566498,-0.06337617337703705,-0.19125865399837494,-0.27958038449287415,0.0537172295153141,0.24036812782287598,-0.10130464285612106,0.027921415865421295,0.14408795535564423,-0.03654312342405319,0.4125674366950989,0.15285232663154602,-0.2500312626361847,0.01022948045283556,0.14651791751384735,-0.14089526236057281,0.07684937864542007,-0.15446245670318604,-0.36773011088371277,-0.1338774710893631,0.28231334686279297,-0.20395801961421967,-0.28556331992149353,0.10799004882574081,-0.19264239072799683,-0.23757736384868622,0.22229847311973572,-0.060990411788225174,0.5326916575431824,0.03792184218764305,-0.2217610776424408,-0.01710413210093975,0.29812291264533997,0.21941907703876495,0.12395305186510086,-0.294119268655777,0.016059858724474907,0.012692979536950588,-0.12666422128677368,-0.2558651864528656,-0.09218545258045197,0.32213538885116577,-0.2172597199678421,-0.15958291292190552,0.3286609649658203,0.25626134872436523,-0.08450094610452652,-0.32303735613822937,-0.0111794238910079,-0.15324778854846954,-0.26709139347076416,0.17939089238643646,-0.11194770783185959,0.1926184892654419,-0.09917989373207092,-0.39495837688446045,-0.08155451714992523,-0.05759671330451965,0.3953028917312622,-0.28740033507347107,-0.009461499750614166,-0.1493888646364212,0.10981279611587524,0.09648603945970535,-0.7613016963005066,0.5604605078697205,-0.07748673111200333,0.02687312848865986,0.1552170217037201,0.10809493809938431,0.3795808255672455,0.053656965494155884,0.18004447221755981,-0.11862611025571823,-0.081355020403862,-0.45999374985694885,1.1479798555374146,-0.23628368973731995,0.05472000688314438,-0.08394652605056763,0.049499981105327606,-0.08947622776031494,0.13183239102363586,-0.10711372643709183,0.4083876311779022,-0.4484107792377472,0.11954367905855179,0.03146202862262726,0.07172111421823502,0.0913841724395752,0.03744327276945114,-0.18723446130752563,-0.036636095494031906,0.3238343298435211,0.09912256896495819,0.014346146024763584,-0.05271916836500168,-0.12843172252178192,0.03949398919939995,-0.09578236192464828,-0.38163959980010986,-0.002621025312691927,-0.03247333690524101,0.07863849401473999,-0.030868982896208763,0.36542055010795593,0.24113088846206665,-0.11231714487075806,-0.015713008120656013,0.07487953454256058,0.027926677837967873,-0.3433477580547333,-0.3012557625770569,-0.06651724129915237,-0.04894145950675011,-0.04958243668079376,-0.03563611954450607,-0.17544059455394745,-0.14955337345600128,-0.17686998844146729,-0.1350267380475998,0.0394546240568161,0.11907383054494858,0.31499460339546204,0.0794784426689148,0.03181891143321991,-0.17319898307323456,0.08316560834646225,-0.039108891040086746,0.14915446937084198,-0.03384299576282501,-0.05984736233949661,-0.05257746949791908,0.22301341593265533,0.20264917612075806,0.03869226947426796,0.01090561505407095,0.03615519776940346,-0.23294667899608612,-0.03597623109817505,0.05921538546681404,0.1785763055086136,-0.164931982755661,-0.14684362709522247,0.11601077020168304,0.015810569748282433,-0.15787538886070251,0.22581371665000916,0.23772136867046356,0.30321505665779114,-0.27415725588798523,0.11669795215129852,-0.062394823879003525,-0.006439669989049435,0.08506913483142853,0.09519653022289276,-0.3379591405391693,0.04111402481794357,-0.09313494712114334,0.4401426911354065,0.21273410320281982,0.1537536233663559,-0.08100054413080215,-0.0027520875446498394,0.1582191288471222,0.013323438353836536,0.0946853756904602,-0.08554720878601074,-0.04789121821522713,0.11450017988681793,-0.12730363011360168,0.1317337155342102,0.18219414353370667,0.11002963036298752,0.00822567567229271,-0.13520066440105438,0.01632799580693245,-0.07315833866596222,-0.009988753125071526,-0.17021813988685608,0.016130035743117332,0.23018747568130493,0.09637228399515152,-0.19619040191173553,0.02620098926126957,0.09536993503570557,0.01615593209862709,0.15726588666439056,0.004001406021416187,-0.14092308282852173,-0.11149268597364426,-0.07930298894643784,0.07062684744596481,0.006712759379297495,-0.05335259437561035,0.07834476232528687,-0.07327109575271606,0.05495166778564453,-0.12944841384887695,0.0059384629130363464,-0.046673353761434555,-0.19267241656780243,-0.2063535749912262,0.1043616309762001,-0.24464081227779388,-0.10160995274782181,0.03046514466404915,0.16178485751152039,-0.14016494154930115,-0.10947535187005997,-0.023100079968571663,-0.11604248732328415,-0.009838406927883625,0.3825087547302246,-0.12278726696968079,-0.10305585712194443,-0.05091841518878937,-0.17723403871059418,0.03521265834569931,-0.03518831357359886,-0.1419934332370758,-0.03171352669596672,-0.18305572867393494,-0.10988175123929977,-0.1284867823123932,0.16613692045211792,0.16945485770702362,-0.0495867058634758,-0.27940040826797485,-0.023287435993552208,-0.04771352931857109,-0.18630574643611908,-0.20768141746520996,0.161393404006958,-0.055788494646549225,-0.011099778115749359,-0.07682833075523376,0.2295418530702591,0.18738892674446106,0.08155670017004013,-0.16679641604423523,-0.027685612440109253,0.04005255922675133,0.11526784300804138,0.04804021120071411,-0.1038551852107048,0.24193866550922394,0.05988914892077446,0.10488159209489822,-0.11679385602474213,-0.0006577062886208296,-0.08211322128772736,0.1599443107843399,0.021304961293935776,0.008167753927409649,-0.07973978668451309,0.18409112095832825,-0.04919524863362312,-0.06196320801973343,0.04784351959824562,-0.28237125277519226,-0.05039750784635544,-0.15488779544830322,-0.1497781127691269,-0.03382957726716995,-0.251511812210083,-0.011132573708891869,0.036545947194099426,-0.19977639615535736,-0.16887642443180084,0.2321435958147049,0.10147973150014877,-0.10079804062843323,-0.10244325548410416,0.16562733054161072,-0.007759247440844774,0.11139391362667084,0.3777413070201874,0.11035306751728058,0.013186990283429623,-0.1733052283525467,-0.1550726443529129,0.114314503967762,0.0029442955274134874,-0.20296339690685272,-0.09804866462945938,-0.1705179512500763,-0.06300636380910873,-0.32671162486076355,0.03702961280941963,0.3070354163646698,0.28410476446151733,0.0874917209148407,-0.10149336606264114,0.24034586548805237,0.06546461582183838,-0.15653134882450104,0.11897162348031998,0.04876634478569031,0.16973547637462616,0.2493143230676651,-0.1471421718597412,-0.13830995559692383,-0.11932948976755142,0.001891094958409667,0.011746427044272423,0.3120131194591522,0.13606290519237518,-0.35713011026382446,0.3232857584953308,0.2784042954444885,0.11642857640981674,0.14292632043361664,0.12607543170452118,-0.1768919974565506,0.15994343161582947,-0.08284486085176468,0.21007394790649414,0.32476723194122314,-0.029628142714500427,-0.22795993089675903,-0.17459994554519653,-0.13318097591400146,0.30860161781311035,-0.035228878259658813,-0.02794962003827095,0.09138844162225723,0.38242021203041077,-0.1969902068376541,-0.3655014932155609,0.22917892038822174,0.13376019895076752,-0.3620474338531494,-0.2746392786502838,-0.1672268509864807,0.2177918702363968,0.05886846408247948,0.017483387142419815,0.12430354207754135,-0.1716432273387909,-0.16824503242969513,0.07895177602767944,0.010797582566738129,-0.048301585018634796,0.17612460255622864,-0.07425586879253387,0.01215734425932169,-0.052030060440301895,0.08395106345415115,0.003326956881210208,0.01802343688905239,-0.1354711949825287,-0.30114057660102844,-0.0841030552983284,-0.10940299183130264,0.04148270934820175,0.1816859394311905,0.03572864085435867,-0.09934499859809875,0.11838199943304062,-0.146839901804924,-0.022837573662400246,-0.14522524178028107,-0.3403536081314087,0.006022671237587929,0.05112949758768082,-0.11315620690584183,-0.1081714928150177,-0.027152318507432938,0.1606193631887436,0.04513862356543541,0.04487542808055878,0.20712809264659882,0.009093783795833588,-0.06698759645223618,-0.09459013491868973,-0.1606196165084839,0.12307731062173843,-0.14980067312717438,-0.14373281598091125,0.19247791171073914,0.07771790772676468,-0.109591044485569,-0.3628394305706024,-0.2407708764076233,-0.02113957330584526,0.3153802156448364,0.1467808037996292,-0.06051238253712654,-0.2772091329097748,0.050862692296504974,-0.07548034191131592,-0.03913140296936035,0.008271622471511364,-0.010099568404257298,-0.18094240128993988,0.10315356403589249,0.13394902646541595,-0.00904131680727005,-0.22973638772964478,-0.19082850217819214,0.06733044981956482,-0.05799730122089386,0.11378710716962814,-0.20059138536453247,0.06708160042762756,-0.37801575660705566,0.07573335617780685,0.11121050268411636,-0.0644690990447998,0.02181035652756691,-0.014555062167346478,-0.22641673684120178,-0.42233651876449585,0.20396849513053894,0.16632826626300812,-0.09060806781053543,-0.022344056516885757,-0.03567802533507347,0.18357987701892853,-0.09861967712640762,0.08921253681182861,0.18346084654331207,0.21549062430858612,0.091682069003582,-0.06703503429889679,0.13092665374279022,0.062445465475320816,-0.2230532169342041,0.008136376738548279,0.027932072058320045,0.18583765625953674,-0.2769742012023926,-0.01192048192024231,0.21413791179656982,0.2980353534221649,-0.056836698204278946,-0.22445647418498993,0.2806414067745209,0.06797318905591965,-0.35160985589027405,-0.1526440978050232,0.0904877558350563,0.2977818250656128,0.03937439247965813,0.15196798741817474,-0.03183920681476593,-0.31653091311454773,-0.04286881908774376,-0.007647539954632521,0.18590091168880463,-0.026272358372807503,-0.2379578948020935,-0.14118529856204987,-0.31658634543418884,0.1436065137386322,0.14423219859600067,0.09324825555086136,-0.13159561157226562,0.09335747361183167,-0.21900179982185364,0.3442195951938629,0.2592869997024536,0.0196966752409935,-0.3592258393764496,-0.24143502116203308,0.02550823614001274,0.22945046424865723,-0.1341678649187088,0.2946118414402008,0.005182551220059395,0.31752297282218933,0.12289908528327942,-0.3174688518047333,0.20295000076293945,0.030858512967824936,-0.1758691966533661,-0.28027427196502686,-0.03778966888785362,0.16977936029434204,0.22574464976787567,0.08580318838357925,-0.0683278888463974,-0.14895722270011902,0.017136290669441223,0.15698669850826263,-0.025230731815099716,0.0924762561917305,0.2418908029794693,-0.16880916059017181,-0.10621227324008942,0.01448209211230278,-0.04209624230861664,-0.0028065163642168045,0.0008562040165998042,0.07989848405122757,-0.025007791817188263,-0.5372838973999023,-0.19535939395427704,0.05759519338607788,0.025861529633402824,-0.2276873141527176,-0.20188823342323303,0.26697567105293274,0.05024639517068863,-0.03450213000178337,0.19662505388259888,-0.14592719078063965,-0.16831444203853607,-0.0880117192864418,-0.09468121081590652,0.1712675392627716,0.25563549995422363,0.034155040979385376,0.03850885480642319,-0.33008506894111633,0.19412435591220856,0.3515770137310028,0.005037609953433275,-0.12378408014774323,-0.001229410176165402,0.2407376766204834,-0.07704798877239227,0.007712577003985643,0.19265808165073395,0.04865361377596855,-0.047873202711343765,-0.30946528911590576,-0.06560545414686203,0.010037687607109547,0.2937832474708557,0.138343945145607,-0.17453248798847198,-0.1041918471455574,-0.024689337238669395,0.06263048201799393,0.05567783862352371,0.24475210905075073,0.36565065383911133,-0.07066532969474792,0.15374411642551422,0.1776280701160431,-0.02497348003089428,-0.2865849733352661,-0.30090203881263733,-0.12383051216602325,0.10834278911352158,-0.10251384228467941,-0.06105504557490349,-0.3012102544307709,-0.1416819542646408,-0.3668305575847626,0.09111019223928452,-0.0532461516559124,-0.05904937908053398,0.4613891839981079,0.1358603686094284,-0.35140204429626465,0.09477085620164871,-0.2301037758588791,-0.02122308500111103,-0.002419572789222002,0.24595314264297485,0.2039930522441864,-0.49505937099456787,0.37605127692222595,0.20856596529483795,0.15407246351242065,0.15974430739879608,-0.21054960787296295,0.31142082810401917,-0.12446899712085724,-0.2534677982330322,-0.23151421546936035,-0.029443051666021347,0.378039687871933,0.29253458976745605,-0.1161876991391182,0.19564704596996307,-0.03745712339878082,0.008023661561310291,-0.04960928112268448,0.03887610882520676,-0.12159240245819092,0.07894954830408096,-0.08067605644464493,0.048296235501766205,0.01722453348338604,-0.09333479404449463,0.04388526827096939,0.10347414016723633,-0.022862421348690987,-0.14908677339553833,-0.34397202730178833,0.8810566663742065,0.46341952681541443,-0.6350659728050232,0.36721935868263245,-0.448392391204834,-0.2161024659872055,0.39534083008766174,-0.694149911403656,1.1939600706100464,0.6531834006309509,0.08869756013154984,-0.18220287561416626,-0.09949697554111481,-0.6869107484817505,0.3798788785934448,0.07409623265266418,0.09802228212356567,-0.3714999854564667,0.09822078794240952,0.45139777660369873,0.1573253720998764,-0.04533575102686882,-0.14359064400196075,0.10378853976726532,0.17436303198337555,-0.17985989153385162,-0.09283440560102463,0.06791721284389496,-0.16466830670833588,0.21014073491096497,0.5246009826660156,0.15512798726558685,-0.04912714287638664,0.1941019892692566,0.3129439353942871,0.4226635992527008,-0.33008456230163574,-0.3252513110637665,-0.4175443947315216,0.26264894008636475,0.04174882546067238,-0.3113969564437866,0.17521408200263977,0.20660418272018433,0.021544065326452255,-0.045883260667324066,-0.07954899221658707,-0.2071887105703354,0.09555245190858841,-0.1622045934200287,0.5421687960624695,0.2804860770702362,-0.030344093218445778,-0.04455519840121269,-0.02292456105351448,-0.11866134405136108,-0.5542344450950623,0.12250678986310959,-0.05471573770046234,-0.7406574487686157,0.08431351184844971,-0.1526428610086441,0.21649207174777985,0.1195046529173851,0.27192023396492004,-0.24267643690109253,-0.21640343964099884,0.29134705662727356,-0.3030325770378113,0.2276965230703354,0.10953414440155029,-0.028382087126374245,0.1541774421930313,0.5399898290634155,-0.0692519098520279,0.12401087582111359,0.34586313366889954,-0.1456911861896515,-0.1826016753911972,-0.23091842234134674,0.22816979885101318,-0.3857100009918213,0.314789354801178,-0.23099680244922638,0.17671015858650208,0.14395667612552643,0.2783784866333008,-0.18609517812728882,-0.7512117624282837,0.17316703498363495,-0.44440653920173645,-0.6447579264640808,0.4762931168079376,-0.25053906440734863,-0.3323808014392853,0.1639849990606308,0.013366702944040298,-0.30435433983802795,-0.23349814116954803,0.5027345418930054,0.05606786161661148,0.25688183307647705,0.0008116452372632921,-0.1939203441143036,0.04972809925675392,0.10000395774841309,-0.04128747805953026,0.21359500288963318,0.11691171675920486,0.2419200986623764,0.331946462392807,0.38820552825927734,-0.2851984202861786,0.13638974726200104,0.26970991492271423,-0.07670553773641586,-0.1109161525964737,-0.24367091059684753,-0.25160786509513855,0.4673633277416229,0.286045104265213,-0.39521652460098267,0.24190875887870789,0.1994641274213791,-0.04369371011853218,0.3166157305240631,0.4933852255344391,0.44314590096473694,-0.17392173409461975,-0.17089402675628662,0.22442679107189178,-0.2505631148815155,-0.40199074149131775,-0.5023375749588013,-0.10867106914520264,0.3105809688568115,-0.005831162445247173,0.4270256459712982,0.07830426096916199,0.06261272728443146,0.1213056817650795,-0.2957788407802582,-0.22135812044143677,0.22863759100437164,-0.0445265993475914,0.13867856562137604,0.4554452896118164,0.0951726958155632,-0.1406821757555008,0.15624289214611053,-0.08700554817914963,-0.04166112467646599,-0.4590829014778137,-0.03622039780020714,-0.373390793800354,-0.4007973372936249,0.0977269634604454,-0.07423596829175949,0.23461972177028656,-0.06753911823034286,-0.2383662313222885,0.36196115612983704,-0.04162033274769783,-0.034058067947626114,-0.08441059291362762,-0.05261083319783211,-0.09016052633523941,0.04716702923178673,0.3179105222225189,-0.17793838679790497,-0.03901936486363411,0.11626410484313965,0.2025066316127777,-0.15355245769023895,0.3212010860443115,-0.05399004742503166,-0.14161953330039978,-0.13155488669872284,0.41097089648246765,-0.3057141900062561,-0.029580025002360344,-0.1409834921360016,0.18399281799793243,0.1695064902305603,-0.4567705988883972,-0.05039094015955925,-0.009721036069095135,-0.45667538046836853,0.042650818824768066,0.13254095613956451,0.23763221502304077,0.3607645034790039,0.09056505560874939,0.07629605382680893,-0.07588460296392441,0.21304179728031158,0.11683350056409836,0.006167478859424591,-0.35748639702796936,-0.2099476009607315,-0.11151553690433502,0.18079431354999542,-0.16809847950935364,-0.18529489636421204,-0.04948261007666588,0.38852179050445557,-0.6708124876022339,-0.5486828684806824,-0.1139015406370163,-0.3810269832611084,0.38226842880249023,0.29881197214126587,-0.13163229823112488,0.00415030587464571,0.050706613808870316,-0.37877392768859863,-0.4673505425453186,0.2758975327014923,-0.22394545376300812,-0.22447191178798676,0.5154743790626526,-0.7483486533164978,-0.32721903920173645,0.10082853585481644,-0.04642710089683533,-0.02148701250553131,0.03698847070336342,-0.329380601644516,0.28075745701789856,0.0547696016728878,0.27364861965179443,-0.0664236769080162,0.0875643789768219,-0.23650068044662476,-0.11355742812156677,0.12132665514945984,-0.17493318021297455,-0.03731231763958931,-0.01936110109090805,0.34808215498924255,-0.08971110731363297,0.061810452491045,-0.16207584738731384,0.4262661039829254,0.05511712655425072,-0.4120265543460846,0.13662675023078918,0.2568404972553253,0.1494496762752533,0.2559644281864166,-0.03121080808341503,0.12685063481330872,-0.23060742020606995,0.009028227999806404,-0.3208591639995575,-0.04058549925684929,-0.14226700365543365,-0.2590285539627075,-0.2525040805339813,-0.2937099039554596,-0.019643273204565048,-0.12107792496681213,-0.08543747663497925,0.1543271392583847,0.16080045700073242,0.42701032757759094,-0.28163596987724304,-0.08828602731227875,-0.0715666264295578,-0.09480419009923935,-0.11119955778121948,-0.3935288190841675,0.16236473619937897,-0.08615750074386597,-0.0007269419147633016,0.14322973787784576,0.008025651797652245,-0.025682639330625534,-0.10898160934448242,-0.2549472451210022,0.09503335505723953,-0.013718648813664913,0.31004443764686584,-0.06419609487056732,0.05762629583477974,0.2329343855381012,-0.009964479133486748,-0.17236541211605072,0.1956244707107544,0.07785879820585251,-0.04759988561272621,-0.01663196086883545,0.11963719129562378,-0.2555987238883972,-0.004506229422986507,-0.13459457457065582,0.14205673336982727,0.04736095294356346,0.014232649467885494,-0.189941868185997,-0.06325018405914307,-0.07969273626804352,-0.4224478304386139,0.35975557565689087,0.22945380210876465,-0.08723487704992294,-0.20186325907707214,-0.06855107098817825,0.47208213806152344,-0.25666168332099915,0.06312639266252518,-0.4537387192249298,0.004600342828780413,0.18032057583332062,0.18908800184726715,-0.13263654708862305,0.08698136359453201,-0.34715133905410767,0.10030332952737808,-0.06942613422870636,-0.2921680212020874,-0.1255052238702774,-0.3044487535953522,0.23413079977035522,-0.0950530618429184,0.1595512479543686,-0.07716961950063705,-0.16212007403373718,-0.027844969183206558,-0.252596378326416,-0.040219176560640335,-0.1279970109462738,-0.1324872523546219,-0.034558165818452835,0.023127054795622826,0.2484201192855835,-0.07972189038991928,0.24804732203483582,-0.17664030194282532,-0.08829566091299057,-0.04568721354007721,-0.7742441296577454,0.0820140615105629,-0.5653476715087891,0.46912896633148193,0.35460349917411804,-0.2922477424144745,-0.48653650283813477,0.1789388358592987,-0.17047183215618134,0.24870415031909943,0.21439129114151,-0.05500545725226402,0.09017917513847351,0.011134479194879532,0.2634248733520508,-0.010072794742882252,-0.1702871471643448,-0.12325345724821091,-0.5109986066818237,-0.0901346206665039,0.1603952944278717,0.30031678080558777,0.19135114550590515,-0.09825894236564636,-0.48981067538261414,0.03676728531718254,-0.07409761101007462,0.038069579750299454,-0.10354533791542053,-0.317237913608551,-0.1539582461118698,0.035190366208553314,-0.24178268015384674,0.020884200930595398,-0.05161059647798538,-0.15665437281131744,0.027433952316641808,0.2043038010597229,-0.07905703037977219,0.09730912744998932,-0.1015651598572731,-0.2667958438396454,-0.06277251988649368,0.2265833169221878,0.2576656639575958,0.016078179702162743,-0.2322835624217987,-0.08793064951896667,0.06859996169805527,0.053266409784555435,-0.2361651360988617,0.08185137063264847,-0.08010370284318924,0.15482531487941742,0.06039706990122795,0.028753696009516716,0.01259719766676426,-0.3003075122833252,0.1594642549753189,0.18061918020248413,0.07131534814834595,-0.22330446541309357,-0.04983048886060715,0.07678265124559402,0.0740174874663353,-0.012464805506169796,-0.0032691897358745337,0.08454018831253052,0.18292580544948578,-0.06513442099094391,-0.1328202337026596,0.14093908667564392,-0.016434872522950172,-0.15203866362571716,-0.44738835096359253,-0.09784461557865143,-0.011387874372303486,-0.13771302998065948,-0.0009899046272039413,0.004351741634309292,0.08288774639368057,-0.09724248200654984,-0.2034839242696762,0.20592987537384033,-0.03774663805961609,0.010594437830150127,-0.1866311877965927,0.0036493486259132624,0.11189810186624527,0.09643106907606125,0.06967370212078094,0.07175581157207489,-0.13426771759986877,0.047597914934158325,0.10182200372219086,0.10075556486845016,0.2676337659358978,-0.12359756976366043,0.27259188890457153,0.04591262340545654,-0.0504147969186306,0.16448472440242767,0.4091455638408661,-0.271237313747406,0.09885135293006897,-0.14983579516410828,0.0628734678030014,0.035722799599170685,0.006499422714114189,0.0573124997317791,0.08396754413843155,-0.011328083463013172,0.04832090809941292,0.04806457832455635,0.14362193644046783,-0.28860601782798767,-0.20399662852287292,0.01588798314332962,0.020592987537384033,-0.0869152694940567,0.3904901444911957,-0.08661482483148575,0.06655154377222061,0.024547569453716278,0.0809377059340477,0.1669677197933197,0.32952216267585754,-0.14175598323345184,0.0035037649795413017,0.17069287598133087,-0.10962016135454178,-0.18968622386455536,0.07601706683635712,-0.041162390261888504,0.07947021722793579,0.010768597014248371,-0.02629345841705799,-0.04447652027010918,-0.04769233986735344,0.02273045852780342,0.2012728452682495,-0.07119444012641907,-0.10790625959634781,-0.5101225972175598,0.4950863718986511,0.041198547929525375,0.23403869569301605,-0.10360900312662125,0.2108767330646515,-0.32172027230262756,0.3209134638309479,0.05793430283665657,-0.33301660418510437,-0.059300463646650314,0.12682637572288513,0.08367040008306503,-0.11418306827545166,-0.04622917249798775,0.12866906821727753,-0.08168449252843857,-0.0008105124579742551,-0.5019509196281433,0.21349382400512695,-0.0852121040225029,0.06739097088575363,-0.23677268624305725,-0.11905098706483841,0.07060527056455612,0.2624160051345825,-0.043958406895399094,-0.24079959094524384,-0.08440601825714111,-0.02982953190803528,-0.42621949315071106,0.25756949186325073,0.0951639786362648,0.0001887459511635825,-0.10124242305755615,-0.17670764029026031,0.29071667790412903,0.04247996211051941,0.058838315308094025,-0.031976304948329926,-0.054289933294057846,0.13263541460037231,-0.18008387088775635,-0.008726473897695541,0.03393864631652832,0.24235764145851135,0.024213656783103943,-0.19635091722011566,0.10248997807502747,0.19319842755794525,0.14206717908382416,0.04141790792346001,-0.029937122017145157,-0.09677238017320633,0.08501619845628738,0.01648564264178276,0.027042316272854805,0.12436354905366898,-0.16468960046768188,0.0669628232717514,0.1991967409849167,0.0659673735499382,-0.05806821212172508,0.12049535661935806,-0.16959193348884583,-0.14780013263225555,0.045264724642038345,0.11560619622468948,0.09075912833213806,0.16549859941005707,0.16466382145881653,-0.14431418478488922,0.12927639484405518,-0.11867351830005646,-0.09406178444623947,0.01995992101728916,0.17965787649154663,0.09515552222728729,-0.047637030482292175,0.009494159370660782,-0.13863679766654968,0.1775369495153427,-0.10317019373178482,-0.1020471528172493,0.3077784478664398,0.0068556987680494785,0.026017889380455017,-0.06897752732038498,0.12211955338716507,0.1016690731048584,0.3002482056617737,-0.07295774668455124,-0.16787981986999512,-0.17656326293945312,0.038247525691986084,0.19260703027248383,0.032249681651592255,0.3610982596874237,0.0950726717710495,-0.011817642487585545,-0.23415939509868622,-0.31818336248397827,0.11071356385946274,0.36484718322753906,-0.07840456813573837,-0.058893173933029175,-0.22906693816184998,0.0727466344833374,-0.2599274516105652,-0.053697939962148666,0.03899003565311432,0.08138909190893173,-0.022735128179192543,-0.10210422426462173,-0.07627680152654648,0.4299466013908386,-0.00283959973603487,-0.06293801218271255,0.14986298978328705,0.10362859815359116,0.02831917069852352,0.2611232399940491,0.11755765974521637,0.18367905914783478,-0.1390877217054367,-0.13091552257537842,0.3168594241142273,0.1253504604101181,-0.2596372365951538,-0.25560373067855835,0.1259460300207138,-0.03960590064525604,-0.2718256115913391,0.021883580833673477,0.08725032955408096,0.14869660139083862,-0.08974125981330872,-0.272333562374115,0.2204306423664093,-0.1809881031513214,-0.14014802873134613,-0.13745364546775818,0.025586627423763275,0.2952043116092682,-0.14444731175899506,0.002462310716509819,0.16798660159111023,-0.1294889897108078,0.005372217856347561,0.0866105929017067,0.044839415699243546,0.3640204966068268,-0.03201921656727791,-0.08311843872070312,-0.32695505023002625,-0.15730081498622894,-0.16881756484508514,-0.12170924991369247,0.15356312692165375,-0.35740038752555847,0.20133382081985474,-0.09430611878633499,-0.034736111760139465,0.32318800687789917,0.039261382073163986,-0.23898683488368988,-0.12779110670089722,0.08911300450563431,-0.15167663991451263,0.07475544512271881,-0.049596089869737625,0.19967757165431976,-0.08535405993461609,-0.0413484051823616,0.1094677746295929,-0.009562806226313114,-0.06028829514980316,-0.06993377953767776,-0.06116380915045738,0.1360911875963211,-0.4358142018318176,-0.23073327541351318,0.17595231533050537,0.15653252601623535,-0.17128658294677734,-0.08638031035661697,-0.20339171588420868,0.2563968598842621,0.03060770034790039,0.33550745248794556,-0.13043911755084991,0.013979511335492134,0.007703805807977915,-0.4252261817455292,0.019451206550002098,-0.37578439712524414,0.241994708776474,-0.15815354883670807,-0.28514963388442993,-0.19826146960258484,0.0481828898191452,-0.2605627775192261,0.24801357090473175,-0.1605948805809021,0.13650445640087128,-0.14426398277282715,-0.08586183190345764,0.1369694471359253,-0.1496211141347885,-0.031661149114370346,0.06394339352846146,-0.3636177182197571,-0.015711354091763496,0.24370063841342926,0.1940581500530243,-0.03674854710698128,0.153781458735466,-0.41918790340423584,0.026944782584905624,0.06032150238752365,0.17142803966999054,-0.18187612295150757,-0.12277892976999283,-0.04534453898668289,-0.20571568608283997,0.02916295826435089,0.04207850620150566,0.05109861493110657,0.2364276945590973,0.01648842543363571,-0.0699547603726387,-0.1505247950553894,0.05321134999394417,0.11958863586187363,-0.0302191823720932,0.32042860984802246,0.03696338087320328,0.17795100808143616,-0.18305864930152893,-0.23886710405349731,0.0566280297935009,-0.22287596762180328,-0.12766133248806,-0.3017314374446869,0.520173966884613,-0.27860328555107117,0.05936513841152191,-0.01478313934057951,0.09105481207370758,-0.24762099981307983,0.04356897622346878,-0.12939627468585968,0.024288790300488472,-0.14896565675735474,-0.015636859461665154,0.005425966344773769,-0.34091615676879883,0.28251537680625916,0.3072396516799927,-0.16678787767887115,-0.261906236410141,-0.11877289414405823,0.21950532495975494,-0.1647932529449463,-0.1056542843580246,0.04369974508881569,-0.12788154184818268,0.12333036959171295,0.10980519652366638,-0.23344919085502625,-0.2132079154253006,-0.24125167727470398,0.007088193669915199,-0.09998716413974762,0.058828599750995636,-0.24312610924243927,-0.07502105832099915,0.038696106523275375,-0.3533504903316498,-0.2347867339849472,-0.030766943469643593,0.2179815024137497,0.04000110924243927,-0.13692337274551392,0.10872521996498108,0.1046549454331398,-0.08024808019399643,-0.047490548342466354,-0.07383117824792862,0.03579491004347801,0.08177640289068222,0.07835344970226288,0.1138068288564682,-0.0015440343413501978,0.02784072421491146,0.018384933471679688,0.047003455460071564,0.06917889416217804,-0.0074765984900295734,0.21300451457500458,0.15969017148017883,0.048154089599847794,-0.23265308141708374,-0.14277538657188416,0.01493416540324688,0.16853807866573334,-0.018733622506260872,0.06452273577451706,0.07666458934545517,-0.02961667999625206,0.05870763212442398,-0.08597657829523087,0.17118218541145325,0.13164682686328888,-0.0757061317563057,0.08455096185207367,-0.2081456184387207,0.009856966324150562,-0.11617376655340195,-0.039707403630018234,0.12343766540288925,0.2903514802455902,-0.09250561147928238,-0.055234335362911224,0.32197409868240356,-0.00043234796612523496,0.003962854854762554,0.1037302166223526,0.21041972935199738,0.39766600728034973,-0.0791606605052948,0.14682936668395996,0.06568197160959244,0.22027549147605896,0.09225598722696304,-0.16376027464866638,0.016140254214406013,-0.19932512938976288,-0.02777739055454731,-0.2446308583021164,0.0738854929804802,0.06589540094137192,-0.27795130014419556,-0.2874881625175476,0.09660348296165466,-0.047173868864774704,-0.1653762012720108,-0.04331282153725624,0.12449157983064651,-0.09337950497865677,-0.21677663922309875,0.08441317826509476,0.19127428531646729,-0.012395179830491543,-0.06473109871149063,-0.18826214969158173,-0.007770112250000238,0.03539472073316574,0.19210731983184814,0.06033460050821304,0.24619242548942566,-0.2778147757053375,0.0493813082575798,0.0290635097771883,-0.10241816192865372,-0.07806660234928131,-0.02646053582429886,0.15499261021614075,-0.12150100618600845,0.2143213450908661,-0.11725831776857376,0.06726174801588058,0.06929852068424225,-0.15102101862430573,-0.09651289135217667,-0.06945278495550156,-0.07406782358884811,0.062401916831731796,0.21268631517887115,-0.012709304690361023,0.07223567366600037,-0.07065035402774811,0.0964105948805809,0.015488261356949806,0.1202901229262352,0.19396312534809113,-0.24155603349208832,-0.1355573832988739,-0.24609117209911346,-0.17180103063583374,-0.00968361459672451,0.29924505949020386,-0.3609149158000946,0.11199751496315002,-0.09224233776330948,0.05231819301843643,-0.1812010407447815,0.16201472282409668,-0.06672506034374237,0.050743840634822845,0.17213965952396393,0.1250331997871399,-0.21452435851097107,0.43348512053489685,-0.3001236021518707,-0.09480027109384537,0.20244459807872772,0.13328179717063904,-0.07825567573308945,0.2303505539894104,-0.2783101797103882,-0.012278920970857143,-0.022831812500953674,0.16272321343421936,0.028157183900475502,-0.020314766094088554,-0.17755897343158722,0.10485181957483292,0.11993066966533661,0.054631683975458145,-0.02803967334330082,0.07759221643209457,0.016575567424297333,0.15580710768699646,-0.07432100921869278,-0.027150949463248253,0.2515816390514374,-0.13619692623615265,-0.08975546807050705,-0.15674108266830444,0.1337834596633911,0.06344759464263916,-0.1878703534603119,-0.053156763315200806,0.20993009209632874,0.07624402642250061,0.20662850141525269,-0.1615532785654068,0.1132274866104126,-0.04231492057442665,0.2526141405105591,-0.1273065209388733,-0.013524039648473263,0.07435127347707748,-0.3094501495361328,0.07462587207555771,0.20585529506206512,-0.05762261152267456,0.1309429109096527,-0.09748683124780655,-0.1588660180568695,0.041181426495313644,0.14983341097831726,-0.1646994650363922,-0.06786065548658371,0.08966592699289322,-0.11901825666427612,-0.02730192244052887,0.21830089390277863,0.3591617941856384,-0.07284881919622421,-0.1647629737854004,0.0458097830414772,-0.024667533114552498,-0.034839946776628494,-0.25714120268821716,0.019332528114318848,0.2608392834663391,-0.26633143424987793,-0.11601606011390686,0.053127992898225784,0.2262856662273407,0.1613588184118271,0.10023746639490128,0.01936342380940914,-0.2115921676158905,0.05231167748570442,-0.2432560920715332,-0.020091695711016655,0.13091889023780823,0.01822478696703911,-0.0010679331608116627,0.13323913514614105,0.09779108315706253,-0.13471077382564545,0.12412300705909729,0.13506072759628296,0.08282376825809479,-0.0999232828617096,0.03425680100917816,-0.24282710254192352,-0.1039719209074974,-0.0006465428159572184,-0.028205199167132378,0.20151767134666443,0.05093712732195854,-0.016529010608792305,-0.10879550129175186,0.012989802286028862,0.2034481167793274,0.06300070136785507,-0.2638694643974304,0.03692861273884773,0.10860519111156464,-0.027750935405492783,0.08305954933166504,0.14336629211902618,0.1940413862466812,-0.4369591772556305,-0.06168434023857117,-0.008043348789215088,0.034111928194761276,-0.09142972528934479,-0.07870693504810333,0.3199121057987213,0.05894440412521362,0.0647033080458641,0.01709934137761593,-0.049416691064834595,0.08859705924987793,0.10441691428422928,-0.04766012728214264,0.12415050715208054,0.18632076680660248,0.045050766319036484,-0.20528718829154968,0.055892474949359894,0.15352720022201538,-0.4174465537071228,-0.04074984788894653,-0.044433292001485825,-0.04434308782219887,0.20326176285743713,0.001035583089105785,-0.45016244053840637,0.1364821046590805,0.07606959342956543,0.11952388286590576,0.19569477438926697,0.13436946272850037,-0.026515860110521317,-0.05969080328941345,-0.029862523078918457,-0.44119295477867126,0.14162859320640564,-0.21687853336334229,-0.3282873332500458,0.08966001868247986,0.0373053215444088,-0.11701149493455887,0.0531717874109745,0.1952451914548874,-0.42366424202919006,0.19862104952335358,-0.009337927214801311,0.06418590992689133,-0.07556897401809692,-0.24587088823318481,-0.3508341908454895,0.06160218268632889,0.011466056108474731,-0.27809107303619385,0.005367209203541279,0.19723796844482422,-0.03408636152744293,0.2944868206977844,0.03839677572250366,0.009211339056491852,-0.053386494517326355,0.010663031600415707,-0.10746341198682785,-0.057880058884620667,0.12959828972816467,-0.06225023418664932,0.1371413618326187,0.15269891917705536,-0.15155960619449615,-0.08901449292898178,0.07555106282234192,0.2171255499124527,0.008035976439714432,-0.18169252574443817,0.04230276122689247,0.0373065248131752,0.017014244571328163,0.08022811263799667,0.6672260165214539,-0.1325933337211609,0.7496702075004578,-0.6791345477104187,-0.25567352771759033,0.1519661694765091,0.2799985706806183,-0.07919122278690338,0.09211063385009766,-0.03723197430372238,-0.9952270984649658,0.21896126866340637,0.2650703489780426,-0.9236116409301758,-0.03458285331726074,-0.016966724768280983,0.027017002925276756,-0.7136804461479187,0.43051451444625854,-0.07726529985666275,-0.23266775906085968,0.3128860890865326,-0.3066829741001129,-0.43914616107940674,-0.4078335464000702,0.0021421313285827637,0.052514977753162384,0.10013952106237411,-0.10457742214202881,-0.6678881645202637,0.07701899856328964,-0.06568671017885208,-0.3667820990085602,-0.15687012672424316,-0.3878076374530792,0.049595609307289124,-0.0007696861866861582,-0.26300039887428284,0.4535388946533203,0.021121880039572716,-0.46274423599243164,0.07693326473236084,-0.2527117431163788,-0.4378203749656677,-0.003033196786418557,0.20661604404449463,0.33396807312965393,0.3034384846687317,-0.21463090181350708,0.21778742969036102,-0.4763375222682953,-0.2797108590602875,-0.0132590988650918,-0.4882774353027344,0.07650304585695267,0.4089852571487427,0.16835668683052063,-0.124580517411232,-0.2226479947566986,-0.329287052154541,-0.006454735528677702,0.47161129117012024,0.08121645450592041,0.38334211707115173,-0.24581682682037354,0.01676347106695175,0.5237382054328918,-0.0625406950712204,-0.0436202809214592,0.6665810942649841,0.20124495029449463,0.18394432961940765,-0.1013244166970253,0.23227445781230927,0.49011850357055664,0.1476074606180191,0.07623399049043655,0.2902860641479492,-0.1888156682252884,-0.4050463140010834,0.3463784158229828,-0.06217769905924797,0.10236743092536926,-0.1296820491552353,-0.030382174998521805,0.009384018369019032,-0.24969781935214996,-0.3379438519477844,0.5021533370018005,0.15217643976211548,0.10037939250469208,0.38590207695961,-0.30488595366477966,-0.19439761340618134,-0.30061817169189453,-0.2260955572128296,-0.09125462919473648,0.05272720754146576,-0.018276752904057503,0.13223379850387573,-0.16435682773590088,0.39927273988723755,-0.2318897545337677,-0.2938613295555115,0.46304500102996826,0.022944286465644836,-0.45870691537857056,0.4018789529800415,-0.2023821771144867,-0.09117503464221954,-0.36359742283821106,-0.18347826600074768,-0.2629689872264862,-0.017683183774352074,-0.24492892622947693,0.10053569078445435,-0.15598425269126892,-0.15368406474590302,0.4072688817977905,-0.12018126994371414,-0.34237897396087646,-0.08544747531414032,0.2908060550689697,-0.3994278609752655,0.03314771130681038,0.23259344696998596,0.24561677873134613,-0.09188442677259445,-0.15495850145816803,0.043424125760793686,-0.4495757818222046,0.3069618046283722,-0.03197664022445679,-0.3094174563884735,0.1855240762233734,0.3074239492416382,-0.31378066539764404,-0.0731353759765625,-0.009760867804288864,-0.10734403878450394,-0.16125665605068207,0.2033262848854065,0.7711695432662964,-0.29459860920906067,-0.5028855204582214,0.06068558990955353,-0.358812540769577,-0.14376819133758545,-0.08151312917470932,-0.011178197339177132,-0.10505848377943039,-0.3276119530200958,0.005207438487559557,0.14980864524841309,-0.03454263508319855,-0.2697473466396332,-0.06976648420095444,0.5314683318138123,0.1746033877134323,-0.25255322456359863,0.026644689962267876,0.3685970604419708,-0.12501898407936096,0.15083052217960358,-0.008156122639775276,-0.1055680364370346,-0.14179664850234985,0.09823032468557358,-0.22057436406612396,-0.16696368157863617,0.056052953004837036,-0.25991183519363403,0.2406233698129654,0.09417729824781418,0.3222084045410156,0.30028969049453735,-0.21810990571975708,0.13731741905212402,-0.32796990871429443,-0.09223093092441559,-0.40713658928871155,-0.08491075038909912,0.22314631938934326,-0.048799898475408554,0.08797846734523773,0.036957837641239166,-0.12209407240152359,-0.12491200864315033,-0.014292186126112938,0.44486600160598755,0.20018766820430756,-0.11058203876018524,-0.02684236876666546,0.09985393285751343,-0.35595735907554626,0.2811724841594696,-0.12182523310184479,-0.2603263258934021,0.08277078717947006,-0.015058157965540886,-0.2804069221019745,0.2398807406425476,-0.3542468845844269,0.04696002975106239,-0.04264158755540848,-0.3458019495010376,-0.10420887917280197,0.20098267495632172,0.16046488285064697,0.19729533791542053,0.39554038643836975,-0.12037668377161026,-0.22542811930179596,0.15823325514793396,-0.3354659378528595,-0.03760047256946564,0.46146655082702637,-0.14509686827659607,-0.25299763679504395,0.13900484144687653,-0.32402661442756653,0.1932961344718933,0.014397663064301014,-0.28530871868133545,-0.027196206152439117,-0.01090831495821476,0.29301244020462036,0.03555222228169441,0.04159736633300781,0.1244235411286354,-0.13657468557357788,0.13602159917354584,0.13425402343273163,0.5138547420501709,0.05823737382888794,-0.14680258929729462,0.030706433579325676,0.06972276419401169,-0.1847252994775772,0.05759643390774727,-0.12351428717374802,-0.010430174879729748,-0.25509604811668396,0.2848629951477051,-0.14714153110980988,-0.6083189249038696,0.44763344526290894,0.21585753560066223,-0.35665369033813477,0.08811549097299576,-0.5030880570411682,-0.2840789556503296,0.20842109620571136,0.22379419207572937,-0.024357490241527557,-0.0026369383558630943,0.12725545465946198,0.20462557673454285,-0.43682700395584106,-0.08955062180757523,-0.24884676933288574,-0.2756890654563904,0.40966686606407166,-0.010349789634346962,-0.175432488322258,0.014640887267887592,-0.47934505343437195,0.010302708484232426,0.18184097111225128,-0.37274786829948425,0.1767812967300415,0.006724559236317873,-0.16484656929969788,0.03767423331737518,0.12473510950803757,-0.22333505749702454,0.059747204184532166,0.020247729495167732,0.024640288203954697,0.1687965840101242,-0.1396922916173935,0.10028891265392303,0.12359896302223206,0.015973173081874847,0.01080230064690113,-0.15196830034255981,0.006759259849786758,0.30438509583473206,-0.39026886224746704,-0.2915565073490143,0.23027768731117249,-0.0476418174803257,0.2790859341621399,-0.2672605514526367,0.07936470955610275,0.39555925130844116,-0.2725963294506073,-0.26021257042884827,0.26406073570251465,-0.1376713365316391,0.053169477730989456,0.10484800487756729,0.0996038168668747,0.11852408200502396,-0.19981807470321655,0.24206121265888214,0.0026898446958512068,0.09138329327106476,-0.06341996043920517,0.07897493243217468,0.3124602735042572,-0.20177583396434784,0.00402383366599679,0.28466230630874634,0.02283891662955284,0.1620652973651886,0.013284741900861263,-0.1689419448375702,0.17271898686885834,0.31913673877716064,-0.16019418835639954,0.19453777372837067,0.043490082025527954,-0.03721155226230621,-0.051673196256160736,-0.02735472284257412,0.338333398103714,-0.02197895012795925,0.08716210722923279,-0.1593507081270218,0.23633651435375214,0.07511772960424423,-0.0780005007982254,0.03495223820209503,-0.24650852382183075,0.12214560061693192,-0.03803334757685661,-0.1810237020254135,-0.20916247367858887,0.19587653875350952,-0.06730684638023376,-0.015377132222056389,-0.22002682089805603,-0.03845367953181267,0.03766797482967377,0.06175187602639198,0.08717506378889084,-0.03438403829932213,-0.02131105586886406,-0.0071027991361916065,-0.024046391248703003,0.004381597973406315,0.01969771459698677,-0.0025201463140547276,0.025736793875694275,0.025404565036296844,0.027387293055653572,-0.109383225440979,-0.06662991642951965,-0.1949874311685562,-0.03760269656777382,0.16248412430286407,-0.04274383932352066,0.09571943432092667,0.07353028655052185,0.02689385414123535,0.19581933319568634,-0.05013709142804146,0.06189117580652237,-0.5307343602180481,0.019962849095463753,0.024597380310297012,0.018808526918292046,-0.11892277747392654,-0.02153804339468479,0.1673373579978943,0.035413093864917755,0.02482020854949951,0.10305283963680267,-0.13598859310150146,0.029118439182639122,-0.12445909529924393,-0.21187739074230194,0.06726506352424622,-0.042683232575654984,-0.21541613340377808,0.16027778387069702,-0.015314613468945026,0.22747758030891418,0.13288500905036926,-0.08112458884716034,0.00003718351217685267,-0.12900495529174805,0.0140150748193264,0.09159309417009354,-0.15019914507865906,-0.14460763335227966,0.10808736085891724,0.2657729983329773,-0.033670973032712936,0.028383873403072357,-0.03932388871908188,-0.08732455968856812,0.024789875373244286,-0.09049947559833527,-0.04168873652815819,-0.047633808106184006,-0.2964756190776825,0.14278702437877655,-0.10071129351854324,-0.19186115264892578,-0.14410372078418732,-0.23189352452754974,0.010360410436987877,0.0868702083826065,0.09350176900625229,-0.11088457703590393,0.08777278661727905,-0.09122880548238754,-0.0169735886156559,0.05024859309196472,0.07562907040119171,0.07389063388109207,-0.18323522806167603,0.0915183275938034,0.43322253227233887,0.06386067718267441,0.22538478672504425,-0.14319804310798645,-0.0008919038809835911,-0.036011017858982086,-0.2528504431247711,-0.11830134689807892,0.027520762756466866,-0.1581243872642517,-0.003453693585470319,-0.18147321045398712,0.08587108552455902,0.44815948605537415,0.1417216658592224,0.4255386292934418,0.39800697565078735,-0.006019176449626684,0.02646925300359726,-0.14849787950515747,-0.10322025418281555,-0.49112468957901,-0.13807371258735657,0.09133023768663406,-0.18678273260593414,0.03853582590818405,-0.2698993384838104,0.16204170882701874,0.26900121569633484,-0.046552062034606934,0.009524106048047543,0.5313559770584106,-0.08955220878124237,0.25695887207984924,-0.2126486748456955,-0.032857514917850494,0.22812461853027344,0.21193519234657288,0.09251660853624344,0.08225753158330917,0.014048147946596146,0.06695099920034409,-0.01931658387184143,-0.0541190467774868,-0.022566508501768112,-0.4891795217990875,-0.002362053142860532,-0.024497324600815773,-0.14046630263328552,0.20690377056598663,-0.03257886692881584,0.40178269147872925,0.1720881164073944,0.2603391110897064,0.00983523391187191,-0.07697537541389465,-0.18179814517498016,0.0329437218606472,0.016971174627542496,0.20978882908821106,-0.15101520717144012,0.15500551462173462,0.30159687995910645,0.14071838557720184,-0.04514903947710991,0.28857865929603577,-0.22270850837230682,0.1497069001197815,0.06357710808515549,0.2912854850292206,0.1423114389181137,-0.12296885251998901,-0.08854413032531738,0.13232769072055817,0.0627162754535675,-0.20468516647815704,0.1066596508026123,0.2073267251253128,-0.09899724274873734,0.13298752903938293,0.2997633218765259,-0.02284887619316578,-0.028514860197901726,0.26414787769317627,0.08055446296930313,0.1057502031326294,0.2507622539997101,-0.20250888168811798,0.1638416051864624,-0.13867488503456116,-0.1342671662569046,-0.21902330219745636,-0.007836760953068733,0.13800819218158722,-0.09624522924423218,0.1001117080450058,-0.08197831362485886,0.07679561525583267,0.05058262124657631,-0.21977299451828003,0.1245013177394867,-0.07942752540111542,0.16381791234016418,-0.3416692912578583,-0.1058896854519844,-0.03429276868700981,-0.2797110974788666,0.4321994185447693,0.1026129350066185,0.2633691728115082,0.3044763505458832,-0.08316238969564438,-0.6823985576629639,0.4246531128883362,-0.07618530839681625,0.303051233291626,-0.39119771122932434,0.10254961997270584,0.012081915512681007,-0.6506397128105164,0.021435000002384186,-0.04473790526390076,0.16150794923305511,-0.06666018068790436,-0.37891241908073425,0.3100748062133789,0.09467308968305588,-0.4788937270641327,0.16812430322170258,-0.03216234967112541,-0.14338050782680511,0.21187809109687805,-0.12194517254829407,-0.09839510172605515,0.25632572174072266,0.03242456540465355,-0.005319802090525627,0.14241519570350647,-0.024965517222881317,0.2434600293636322,-0.6493744254112244,-0.1711244434118271,-0.07460423558950424,-0.1972869336605072,-0.1330234408378601,-0.19265003502368927,0.5274412631988525,-0.13270637392997742,0.10437700152397156,-0.027165232226252556,-0.053208477795124054,-0.017059065401554108,0.1856497973203659,-0.12739580869674683,-0.03761708736419678,-0.1077757179737091,0.07107111066579819,-0.21550211310386658,-0.08948974311351776,0.24918107688426971,-0.06286805868148804,-0.1081632524728775,0.09887880831956863,-0.0029074104968458414,0.1878412365913391,-0.3637426197528839,0.12216752767562866,0.14558549225330353,0.02762444317340851,-0.07730891555547714,-0.0023929751478135586,0.15899787843227386,-0.15210384130477905,-0.13831494748592377,0.1558079719543457,-0.2776831090450287,-0.09203523397445679,0.34103527665138245,0.10165707767009735,-0.05203988403081894,0.062044449150562286,-0.2757323980331421,-0.0015629675472155213,0.19808313250541687,-0.022381704300642014,-0.01491011306643486,0.0583239383995533,-0.0595434196293354,0.12561793625354767,-0.025054829195141792,-0.009007072076201439,-0.03521496802568436,-0.08809518069028854,-0.2321687489748001,-0.21496209502220154,0.14271685481071472,0.10195854306221008,-0.01619519107043743,0.07779858261346817,-0.02525957301259041,0.12144972383975983,0.3807581961154938,0.06883741915225983,0.10572393238544464,-0.24345792829990387,-0.03293279558420181,-0.11162513494491577,-0.05259714275598526,0.11499395966529846,0.27736416459083557,-0.161276176571846,0.2647308111190796,-0.15884999930858612,0.2140808254480362,-0.1848980188369751,-0.17206411063671112,0.12015815079212189,0.07428514957427979,0.1602478176355362,-0.2611519694328308,0.10988985747098923,-0.03455579653382301,-0.23019854724407196,-0.0571819432079792,0.12582406401634216,-0.04630804806947708,0.03959428519010544,0.012752730399370193,-0.1924329251050949,0.06448204815387726,0.10125136375427246,-0.0921597108244896,-0.32793480157852173,-0.1971779614686966,0.20907944440841675,0.022621585056185722,-0.06419432163238525,0.19284556806087494,0.30012238025665283,0.12501740455627441,-0.16402073204517365,0.06375396996736526,-0.040091030299663544,-0.3233490288257599,-0.22733886539936066,-0.1389940083026886,0.15637549757957458,-0.567658543586731,-0.009264284744858742,0.14223462343215942,0.03079831786453724,0.14039736986160278,0.153481125831604,-0.07268039882183075,0.024844564497470856,0.23741444945335388,0.06214237958192825,0.204766184091568,-0.5385954976081848,-0.153703510761261,-0.2168128490447998,-0.21408797800540924,0.2695424258708954,-0.3587477207183838,0.1586853712797165,-0.09081339091062546,-0.11845216900110245,-0.11122530698776245,-0.033343128859996796,0.12334571778774261,0.016097089275717735,-0.022901151329278946,0.3724498152732849,0.354537695646286,-0.11065837740898132,-0.1485445499420166,-0.03097863681614399,-0.1421118825674057,0.26445627212524414,0.0789332389831543,-0.41069698333740234,-0.09535079449415207,-0.1401035338640213,0.11581068485975266,-0.23066921532154083,-0.1505851447582245,0.19538335502147675,0.06152970343828201,-0.1743365377187729,-0.3614220917224884,-0.03768240660429001,-0.267342209815979,-0.2780296504497528,0.030181946232914925,0.45410245656967163,0.1745149940252304,0.34520915150642395,-0.08263910561800003,0.06812041997909546,-0.060584306716918945,-0.08119744062423706,-0.04019007459282875,-0.07671066373586655,-0.20670637488365173,-0.046777594834566116,0.06368198990821838,0.1845937818288803,0.017386136576533318,-0.22632238268852234,-0.06735511869192123,0.14934678375720978,0.07647882401943207,0.2612430155277252,0.11866841465234756,-0.07364223152399063,-0.08669579774141312,0.03632202371954918,0.1322324424982071,0.058425094932317734,-0.09507765620946884,-0.0781523659825325,0.2363862693309784,0.09468081593513489,-0.17673952877521515,-0.338267058134079,0.10850780457258224,-0.002231033518910408,0.07487011700868607,-0.12778550386428833,0.2372078150510788,-0.15433473885059357,-0.021770237013697624,0.045175567269325256,0.023941919207572937,0.27295851707458496,-0.39547404646873474,0.044076744467020035,-0.030100734904408455,-0.19269025325775146,0.21183817088603973,-0.2613176703453064,-0.16390173137187958,0.17261044681072235,-0.0680486410856247,-0.07142813503742218,0.23638175427913666,-0.11210784316062927,0.07361830770969391,-0.023172132670879364,0.002533761551603675,-0.01133664045482874,-0.17863497138023376,-0.003446522168815136,-0.012314071878790855,-0.13282059133052826,0.10256406664848328,0.1379532516002655,0.4377223551273346,-0.027389971539378166,0.21361695230007172,-0.04993443191051483,-0.05005444213747978,0.06960392743349075,-0.06273111701011658,-0.07882212102413177,-0.0627087727189064,-0.14244967699050903,-0.02429152838885784,-0.14102016389369965,-0.16394223272800446,-0.062100138515233994,0.1353064328432083,-0.01704586111009121,-0.10085185617208481,-0.016831208020448685,-0.18632248044013977,0.44587472081184387,-0.07169089466333389,-0.12717196345329285,-0.048416536301374435,0.08664343506097794,0.0546976663172245,-0.38226282596588135,0.14208367466926575,0.2882446050643921,0.09493779391050339,0.14299355447292328,-0.322171151638031,0.13826388120651245,0.11730125546455383,-0.14134076237678528,0.24927547574043274,-0.23311394453048706,0.22767546772956848,0.11120515316724777,-0.05470270663499832,-0.2733457684516907,0.1496485471725464,0.29808884859085083,-0.2764778137207031,-0.15170539915561676,-0.036121953278779984,-0.08278878033161163,0.05924063175916672,-0.08506585657596588,0.10609600692987442,-0.057107068598270416,-0.07860537618398666,-0.01417373213917017,0.08925721794366837,0.24874289333820343,-0.03961874172091484,0.18679910898208618,0.09176841378211975,-0.16946348547935486,0.06056876853108406,0.21220864355564117,-0.3373902440071106,-0.13643670082092285,0.23820888996124268,0.12214990705251694,0.35715246200561523,0.12752456963062286,-0.35484030842781067,-0.03511254861950874,-0.03234020993113518,0.20436349511146545,0.14463040232658386,0.03182774782180786,0.01387159526348114,0.11580802500247955,0.1545565128326416,0.16668348014354706,0.1499183028936386,0.15588615834712982,-0.06504862755537033,-0.15989892184734344,